\data\
ngram 1=3118
ngram 2=13170
ngram 3=19946

\1-grams:
-0.62354493	<unk>	0
-inf	<s>	-0.71506125
-2.9955988	</s>	0
-4.5175257	resumption	-0.09634532
-1.4991331	of	-0.3879241
-1.6292	the	-0.30133608
-4.5175257	session	-0.09634532
-2.683357	i	-0.29652554
-4.19003	declare	-0.09634532
-4.5175257	resumed	-0.09634532
-2.833935	european	-0.15407385
-2.7339053	parliament	-0.21948239
-4.5175257	adjourned	-0.09634532
-2.03571	on	-0.39158827
-4.19003	friday	-0.09634532
-4.5175257	17	-0.09634532
-4.0042577	december	-0.17726286
-3.4856982	1999	-0.16473855
-1.3448468	,	-0.5751982
-1.5902785	and	-0.25293177
-2.812001	would	-0.20020916
-2.9641237	like	-0.35137165
-3.2002904	once	-0.19780035
-3.256016	again	-0.16631685
-1.6113199	to	-0.34955776
-3.6005259	wish	-0.14306657
-2.716394	you	-0.19434808
-2.080949	a	-0.17763312
-4.5175257	happy	-0.09634532
-3.0663478	new	-0.106083184
-3.4856982	year	-0.19780035
-1.6236197	in	-0.44303697
-3.4856982	hope	-0.22589287
-1.8807768	that	-0.45114732
-4.5175257	enjoyed	-0.09634532
-4.5175257	pleasant	-0.09634532
-4.5175257	festive	-0.09634532
-3.256016	period	-0.17140381
-1.3657699	.	-1.4977694
-3.7570748	although	-0.12919702
-2.2851386	as	-0.29026186
-2.4094334	will	-0.2288577
-2.4179819	have	-0.2589249
-4.0042577	seen	-0.09634532
-4.5175257	dreaded	-0.09634532
-3.2002904	'	-0.09634535
-4.0042577	millennium	-0.09634532
-4.5175257	bug	-0.09634532
-4.19003	failed	-0.22418176
-4.19003	materialise	-0.22418176
-3.2002904	still	-0.116961464
-2.857036	people	-0.19214223
-3.6005259	number	-0.508261
-2.8814354	countries	-0.19645089
-4.19003	suffered	-0.09634532
-4.5175257	series	-0.09634532
-4.19003	natural	-0.22418176
-4.19003	disasters	-0.09634532
-4.19003	truly	-0.09634532
-2.833935	were	-0.1280218
-4.0042577	dreadful	-0.09634532
-3.6005259	requested	-0.13492224
-3.029534	debate	-0.18268394
-2.204164	this	-0.24426761
-3.7570748	subject	-0.09634532
-4.19003	course	-0.09634532
-4.19003	next	-0.09634535
-3.7570748	few	-0.09634532
-4.19003	days	-0.22418176
-3.39497	during	-0.20690842
-3.7570748	part-session	-0.200187
-4.5175257	meantime	-0.09634532
-2.7521524	should	-0.23497124
-4.5175257	observe	-0.09634532
-4.19003	minute	-0.17726286
-2.6677356	's	-0.14054288
-4.5175257	silence	-0.09634532
-3.150909	members	-0.17726286
-4.5175257	behalf	-0.09634532
-2.6239839	all	-0.23878554
-4.5175257	victims	-0.09634532
-3.39497	concerned	-0.21582511
-3.150909	particularly	-0.13606778
-3.150909	those	-0.14446767
-4.5175257	terrible	-0.09634532
-4.19003	storms	-0.09634532
-3.6005259	various	-0.11907794
-3.6005259	union	-0.124952026
-4.19003	please	-0.09634532
-4.19003	rise	-0.09634532
-3.150909	then	-0.14627106
-1.9455138	for	-0.33405292
-3.39497	-lrb-	-0.11907794
-4.19003	house	-0.09634532
-4.19003	rose	-0.09634532
-4.19003	observed	-0.09634532
-3.0663478	-rrb-	-0.25063768
-4.19003	madam	-0.22418176
-3.39497	president	-0.22589287
-3.029534	point	-0.17426212
-4.0042577	order	-0.09634532
-2.6103275	be	-0.16114262
-4.0042577	aware	-0.17726286
-2.5596294	from	-0.31166828
-4.5175257	press	-0.09634532
-4.19003	television	-0.09634532
-2.6239839	there	-0.3958736
-2.9955988	been	-0.13413298
-4.5175257	bomb	-0.09634532
-4.5175257	explosions	-0.09634532
-4.5175257	killings	-0.09634532
-4.5175257	sri	-0.09634532
-4.5175257	lanka	-0.09634532
-2.6526566	one	-0.19309632
-4.5175257	assassinated	-0.09634532
-2.6995614	very	-0.16742523
-3.6005259	recently	-0.14306657
-2.6995614	was	-0.16184612
-2.7911215	mr	-0.2521059
-4.5175257	kumar	-0.09634532
-4.5175257	ponnambalam	-0.09634532
-3.2002904	who	-0.13192801
-3.1065736	had	-0.14922038
-4.5175257	visited	-0.09634532
-2.9641237	just	-0.14600603
-3.6005259	months	-0.12919702
-3.7570748	ago	-0.15557675
-4.0042577	yes	-0.28641233
-4.5175257	evans	-0.09634532
-3.6005259	feel	-0.22589287
-2.4731414	an	-0.16617142
-3.7570748	initiative	-0.14306657
-4.19003	type	-0.17726286
-4.19003	suggested	-0.09634532
-4.19003	entirely	-0.09634532
-3.6005259	appropriate	-0.09634532
-2.9347765	if	-0.2575504
-4.5175257	agrees	-0.09634532
-3.7570748	shall	-0.12919697
-2.8814354	do	-0.2599609
-2.298045	has	-0.28804865
-2.9072876	your	-0.13492224
-4.5175257	advice	-0.09634532
-2.857036	about	-0.21110927
-3.7570748	rule	-0.09634532
-4.5175257	143	-0.09634532
-3.39497	concerning	-0.26490033
-4.5175257	inadmissibility	-0.09634532
-2.6526566	my	-0.16655803
-3.39497	question	-0.09634535
-4.0042577	relates	-0.28641233
-3.4856982	something	-0.1366417
-3.150909	come	-0.2498696
-2.9072876	up	-0.22192684
-4.19003	thursday	-0.15557675
-2.2851386	which	-0.33252263
-3.7570748	raise	-0.09634532
-4.5175257	cunha	-0.09634532
-2.6380837	report	-0.29590634
-4.5175257	multiannual	-0.09634532
-3.7570748	guidance	-0.09634532
-3.150909	programmes	-0.26811418
-3.6005259	comes	-0.200187
-3.256016	before	-0.2094372
-4.19003	contains	-0.09634532
-3.2002904	proposal	-0.17443092
-4.0042577	paragraph	-0.09634532
-4.19003	6	-0.09634532
-3.7570748	form	-0.1954268
-4.5175257	quota	-0.09634532
-4.5175257	penalties	-0.09634532
-4.19003	introduced	-0.17726286
-4.19003	fail	-0.22418176
-4.19003	meet	-0.09634532
-2.683357	their	-0.11253354
-4.5175257	fleet	-0.09634532
-3.7570748	reduction	-0.15557675
-4.5175257	targets	-0.09634532
-4.5175257	annually	-0.09634532
-2.3690453	it	-0.29303274
-4.5175257	says	-0.09634532
-3.3199592	done	-0.13340572
-4.0042577	despite	-0.23055105
-3.6005259	principle	-0.12919702
-4.19003	relative	-0.09634532
-4.5175257	stability	-0.09634532
-3.6005259	believe	-0.17828596
-2.076994	is	-0.32216004
-3.4856982	fundamental	-0.09634532
-3.0663478	legal	-0.23243883
-3.2002904	common	-0.1366417
-4.5175257	fisheries	-0.09634532
-2.812001	policy	-0.2062155
-4.5175257	subvert	-0.09634532
-4.5175257	legally	-0.09634532
-4.5175257	inadmissible	-0.09634532
-3.6005259	want	-0.24800979
-3.4856982	know	-0.19780035
-3.150909	whether	-0.16274579
-2.6526566	can	-0.2938076
-4.5175257	objection	-0.09634532
-4.0042577	kind	-0.09634532
-2.716394	what	-0.27595788
-4.5175257	merely	-0.09634532
-2.53634	not	-0.20384742
-3.7570748	legislative	-0.09634535
-4.5175257	competently	-0.09634532
-3.39497	precisely	-0.11907794
-2.833935	time	-0.23767272
-2.7911215	when	-0.28105187
-2.9347765	may	-0.13492228
-4.19003	i.e.	-0.09634532
-4.0042577	prior	-0.17726286
-3.7570748	start	-0.09634532
-4.0042577	presentation	-0.09634532
-2.3928246	at	-0.43302977
-3.39497	request	-0.121678844
-3.7570748	french	-0.09634532
-2.7911215	member	-0.551929
-4.5175257	zimeray	-0.09634532
-4.5175257	petition	-0.09634532
-3.39497	already	-0.13492224
-3.6005259	presented	-0.124952026
-3.2002904	many	-0.12692785
-4.19003	signed	-0.09634532
-4.5175257	including	-0.09634532
-4.5175257	myself	-0.09634532
-4.19003	accordance	-0.22418176
-2.2604225	with	-0.3666932
-4.0042577	principles	-0.09634532
-2.4179819	we	-0.3406226
-3.4856982	always	-0.09634535
-4.5175257	upheld	-0.09634532
-4.19003	thank	-0.12919702
-4.5175257	segni	-0.09634532
-2.7521524	so	-0.20797738
-4.5175257	gladly	-0.09634532
-3.7570748	indeed	-0.09634528
-3.150909	quite	-0.14811793
-4.19003	keeping	-0.09634532
-4.5175257	positions	-0.09634532
-3.2002904	adopted	-0.13860527
-4.0042577	draw	-0.14306657
-3.3199592	attention	-0.2770454
-3.3199592	case	-0.26008385
-4.5175257	consistently	-0.09634532
-4.0042577	shown	-0.09634532
-4.0042577	interest	-0.09634535
-4.5175257	alexander	-0.09634532
-4.5175257	nikitin	-0.09634532
-2.7712	us	-0.2425743
-3.0663478	here	-0.14660427
-2.3113468	are	-0.19142468
-3.7570748	pleased	-0.22418176
-4.0042577	courts	-0.09634535
-4.5175257	acquitted	-0.09634532
-3.7570748	him	-0.09634532
-2.9072876	made	-0.24875303
-3.029534	clear	-0.15438607
-4.5175257	russia	-0.09634532
-2.9955988	too	-0.09634532
-4.5175257	access	-0.09634532
-4.0042577	environmental	-0.09634532
-3.7570748	information	-0.14306657
-4.5175257	constitutional	-0.09634532
-3.6005259	right	-0.116961464
-2.9347765	now	-0.1482995
-4.0042577	however	-0.13492224
-3.2002904	he	-0.16790092
-4.0042577	go	-0.09634535
-2.4932027	more	-0.13801345
-2.7339053	because	-0.21815853
-3.256016	public	-0.12692785
-4.5175257	prosecutor	-0.09634532
-4.5175257	appealing	-0.09634532
-3.256016	mrs	-0.23434469
-4.5175257	schroedter	-0.09634532
-3.256016	look	-0.18753317
-2.7712	into	-0.19138707
-4.19003	facts	-0.09634532
-4.19003	received	-0.09634532
-4.5175257	letter	-0.09634532
-3.4856982	firstly	-0.17726286
-4.5175257	compliment	-0.09634532
-3.7570748	fact	-0.09634532
-4.0042577	kept	-0.09634532
-4.19003	word	-0.09634532
-3.256016	first	-0.13183004
-4.19003	channels	-0.09634532
-2.6526566	our	-0.1499757
-4.19003	offices	-0.09634532
-3.4856982	increased	-0.09634528
-4.0042577	considerably	-0.09634532
-2.857036	but	-0.19357379
-4.0042577	personal	-0.09634532
-4.5175257	met	-0.09634532
-2.9641237	two	-0.12278994
-4.5175257	finnish	-0.09634532
-4.5175257	portuguese	-0.09634532
-3.029534	no	-0.121678844
-4.0042577	dutch	-0.17726286
-4.5175257	channel	-0.09634532
-3.3199592	able	-0.5827336
-4.19003	follow	-0.15557675
-4.19003	news	-0.09634532
-4.5175257	sent	-0.09634532
-3.39497	place	-0.14858222
-4.5175257	exile	-0.09634532
-3.3199592	every	-0.09634532
-4.19003	month	-0.09634532
-2.9347765	therefore	-0.13362283
-3.256016	ask	-0.21777695
-4.0042577	ensure	-0.14858222
-3.6005259	get	-0.15557675
-3.2002904	well	-0.15738015
-4.5175257	plooij-van	-0.09634532
-4.5175257	gorsel	-0.09634532
-4.0042577	tell	-0.17726286
-3.4856982	matter	-0.1262117
-3.7570748	agenda	-0.12919702
-4.19003	quaestors	-0.17726286
-3.7570748	meeting	-0.09634532
-4.0042577	wednesday	-0.15557675
-4.19003	examined	-0.09634532
-3.4856982	positive	-0.09634532
-3.7570748	light	-0.15557675
-3.256016	me	-0.16559042
-3.256016	why	-0.14129862
-2.8814354	does	-0.6238329
-4.19003	adhere	-0.22418176
-3.7570748	health	-0.23055105
-2.9072876	safety	-0.27117673
-3.39497	legislation	-0.09634528
-3.4856982	actually	-0.09634528
-4.5175257	passes	-0.09634532
-2.6995614	?	-1.2564491
-3.7570748	air	-0.15557675
-3.6005259	quality	-0.18106298
-4.19003	test	-0.09634532
-3.3199592	particular	-0.09634532
-4.19003	building	-0.09634532
-3.256016	since	-0.14811793
-4.5175257	elected	-0.09634532
-3.256016	committee	-0.16957177
-3.39497	1998	-0.1582847
-4.5175257	fire	-0.09634532
-4.5175257	drill	-0.09634532
-3.7570748	either	-0.09634532
-4.5175257	brussels	-0.09634532
-4.5175257	buildings	-0.09634532
-2.57176	or	-0.13211331
-4.5175257	strasbourg	-0.09634532
-4.5175257	instructions	-0.09634532
-4.5175257	staircases	-0.09634532
-3.7570748	improved	-0.09634535
-4.5175257	accident	-0.09634532
-4.5175257	no-smoking	-0.09634532
-2.9641237	areas	-0.22489569
-4.5175257	enforced	-0.09634532
-3.4856982	seems	-0.16790092
-4.0042577	absolutely	-0.09634532
-4.5175257	disgraceful	-0.09634532
-4.19003	pass	-0.09634532
-3.39497	ourselves	-0.09634528
-4.5175257	lynne	-0.09634532
-4.19003	check	-0.09634532
-2.6239839	also	-0.1409845
-3.7570748	refer	-0.23055105
-4.5175257	college	-0.09634532
-4.0042577	am	-0.09634532
-3.150909	certain	-0.113725334
-2.833935	they	-0.29367957
-4.5175257	keen	-0.09634532
-4.5175257	comply	-0.09634532
-3.1065736	regulations	-0.13065107
-3.150909	vote	-0.2458851
-4.5175257	díez	-0.09634532
-4.5175257	gonzález	-0.09634532
-3.4856982	tabled	-0.124952026
-3.4856982	questions	-0.09634532
-4.19003	opinions	-0.09634532
-4.5175257	vice-president	-0.09634532
-4.0042577	de	-0.09634532
-4.5175257	palacio	-0.09634532
-4.5175257	appeared	-0.09634532
-4.5175257	spanish	-0.09634532
-4.19003	newspaper	-0.09634532
-4.5175257	competent	-0.09634532
-3.4856982	services	-0.13492224
-4.0042577	included	-0.09634532
-2.9072876	them	-0.194362
-4.5175257	grounds	-0.09634532
-4.0042577	answered	-0.09634532
-3.6005259	previous	-0.12919702
-4.19003	reconsider	-0.09634532
-4.0042577	previously	-0.09634532
-3.7570748	referred	-0.41135103
-3.7570748	intervention	-0.09634535
-3.39497	another	-0.09634532
-4.0042577	occasion	-0.09634532
-2.716394	these	-0.1342175
-3.2002904	comments	-0.11520561
-4.5175257	abc	-0.09634532
-4.5175257	18	-0.09634532
-4.5175257	november	-0.09634532
-4.5175257	berenguer	-0.09634532
-4.5175257	fuster	-0.09634532
-4.19003	admit	-0.09634532
-3.4856982	present	-0.09634532
-4.19003	somewhat	-0.09634532
-4.5175257	confused	-0.09634532
-3.7570748	properly	-0.09634532
-4.0042577	everything	-0.09634532
-2.833935	today	-0.28535926
-3.4856982	decision	-0.09634532
-4.5175257	renew	-0.09634532
-4.5175257	embargo	-0.09634532
-3.6005259	extremely	-0.09634532
-3.256016	dangerous	-0.1509498
-3.7570748	considering	-0.09634532
-3.39497	situation	-0.14660427
-4.19003	send	-0.09634532
-4.19003	message	-0.09634532
-4.19003	vast	-0.09634532
-3.7570748	majority	-0.13492224
-4.5175257	irresponsible	-0.09634532
-3.3199592	eu	-0.10957291
-3.3199592	states	-0.14734876
-4.5175257	refuse	-0.09634532
-3.3199592	said	-0.124952026
-4.5175257	volatile	-0.09634532
-4.0042577	risk	-0.17726286
-4.5175257	military	-0.09634532
-4.19003	coup	-0.09634532
-3.4856982	future	-0.19786412
-4.5175257	happening	-0.09634532
-4.5175257	arms	-0.09634532
-4.5175257	producers	-0.09634532
-4.5175257	profit	-0.09634532
-4.5175257	expense	-0.09634532
-4.5175257	innocent	-0.09634532
-2.8814354	any	-0.10653109
-4.0042577	event	-0.09634532
-4.5175257	presently	-0.09634532
-3.7570748	among	-0.09634532
-4.19003	requests	-0.09634532
-4.5175257	topical	-0.09634532
-4.0042577	urgent	-0.09634532
-3.7570748	item	-0.12919702
-4.5175257	verification	-0.09634532
-4.0042577	final	-0.09634532
-4.5175257	version	-0.09634532
-4.0042577	draft	-0.15557675
-3.7570748	drawn	-0.23055105
-2.2788265	by	-0.3204341
-4.0042577	conference	-0.09634532
-4.19003	presidents	-0.09634532
-2.716394	its	-0.14571512
-4.5175257	13	-0.09634532
-3.7570748	january	-0.09634535
-4.5175257	pursuant	-0.09634532
-4.5175257	110	-0.09634532
-3.029534	rules	-0.18106298
-3.2002904	procedure	-0.26694277
-2.833935	amendments	-0.17979258
-3.4856982	proposed	-0.12919702
-3.4856982	relating	-0.58744234
-4.5175257	monday	-0.09634532
-4.5175257	tuesday	-0.09634532
-3.029534	:	-0.12919702
-3.0663478	group	-0.14477082
-3.7570748	party	-0.200187
-4.19003	socialists	-0.09634532
-3.3199592	commission	-0.114584245
-4.19003	statement	-0.09634532
-3.39497	strategic	-0.12919702
-2.9641237	objectives	-0.23207864
-3.6005259	five	-0.13492224
-3.3199592	years	-0.17915878
-4.19003	administrative	-0.09634532
-3.3199592	reform	-0.22589287
-4.5175257	barón	-0.09634532
-4.5175257	crespo	-0.09634532
-3.7570748	speak	-0.12919702
-4.0042577	propose	-0.09634532
-4.0042577	wishes	-0.17726286
-4.5175257	usual	-0.09634532
-4.5175257	hearing	-0.09634532
-4.5175257	speaker	-0.09634532
-4.0042577	favour	-0.09634535
-3.256016	against	-0.17979258
-4.0042577	commitment	-0.09634532
-3.029534	important	-0.20425047
-4.19003	body	-0.09634532
-4.19003	monopoly	-0.09634532
-4.19003	treaties	-0.09634532
-3.7570748	basically	-0.09634532
-4.5175257	dictates	-0.09634532
-3.7570748	political	-0.09634532
-4.19003	activity	-0.09634532
-3.7570748	enough	-0.09634532
-4.19003	prepare	-0.09634532
-3.39497	programme	-0.11907794
-3.6005259	become	-0.13492224
-4.5175257	familiar	-0.09634532
-4.19003	explain	-0.09634532
-3.6005259	citizens	-0.121678844
-3.6005259	end	-0.17726286
-4.0042577	remind	-0.23055105
-4.5175257	resolution	-0.09634532
-4.5175257	15	-0.09634532
-4.5175257	september	-0.09634532
-4.5175257	recommended	-0.09634532
-4.5175257	soon	-0.09634532
-3.256016	possible	-0.22532173
-3.6005259	according	-0.508261
-3.6005259	position	-0.09634528
-4.19003	express	-0.09634532
-3.39497	opinion	-0.12919702
-3.256016	issue	-0.116961464
-4.0042577	proceed	-0.17726286
-4.5175257	applause	-0.09634532
-4.5175257	pse	-0.09634532
-3.4856982	really	-0.09634528
-4.5175257	astonished	-0.09634532
-4.5175257	behaviour	-0.09634532
-3.7570748	asking	-0.09634532
-3.3199592	put	-0.21311048
-4.0042577	unable	-0.28641233
-4.5175257	attend	-0.09634532
-3.3199592	last	-0.09634535
-4.19003	criticising	-0.09634532
-2.9347765	;	-0.14976442
-4.19003	happens	-0.09634532
-4.0042577	someone	-0.09634532
-4.0042577	represent	-0.09634532
-4.5175257	hänsch	-0.09634532
-4.19003	represented	-0.09634532
-4.19003	in-depth	-0.09634532
-3.3199592	discussion	-0.14306657
-3.6005259	alone	-0.09634535
-4.5175257	advocating	-0.09634532
-3.7570748	saying	-0.14306657
-3.3199592	each	-0.14306657
-4.5175257	chairman	-0.09634532
-4.5175257	same	-0.09634532
-3.7570748	votes	-0.09634535
-3.2002904	his	-0.124952026
-4.5175257	recall	-0.09634532
-4.19003	outcome	-0.17726286
-4.5175257	422	-0.09634532
-4.5175257	180	-0.09634532
-4.0042577	abstentions	-0.09634532
-3.4856982	means	-0.16473855
-3.7570748	groups	-0.18106298
-4.5175257	exception	-0.09634532
-4.5175257	non-attached	-0.09634532
-2.7339053	-	-0.13261715
-4.0042577	agreement	-0.09634532
-2.812001	only	-0.13923506
-4.0042577	thought	-0.17726286
-3.7570748	others	-0.09634532
-3.4856982	different	-0.09634532
-4.0042577	comment	-0.17726286
-3.4856982	itself	-0.14306657
-3.7570748	confidence	-0.23055105
-4.5175257	romano	-0.09634532
-4.5175257	prodi	-0.09634532
-3.39497	after	-0.14858222
-4.19003	difficult	-0.09634532
-4.5175257	everyone	-0.09634532
-4.5175257	knows	-0.09634532
-3.6005259	supported	-0.32746106
-2.9072876	such	-0.23810002
-4.19003	document	-0.09634532
-4.5175257	!	-0.09634532
-4.19003	2000	-0.09634532
-4.19003	february	-0.09634532
-4.19003	introduce	-0.09634528
-4.5175257	early	-0.09634532
-3.7570748	agreed	-0.09634532
-4.5175257	quarrel	-0.09634532
-3.256016	need	-0.43674624
-4.5175257	tread	-0.09634532
-4.0042577	path	-0.15557675
-4.5175257	supervisory	-0.09634532
-3.4856982	role	-0.1772629
-4.0042577	regard	-0.09634532
-3.4856982	agree	-0.24800979
-2.9641237	out	-0.17828596
-3.7570748	reasonable	-0.09634535
-4.19003	amount	-0.22418176
-4.5175257	preparation	-0.09634532
-4.5175257	five-year	-0.09634532
-3.6005259	hear	-0.12919702
-3.7570748	idea	-0.32746106
-4.0042577	content	-0.09634532
-4.5175257	subjects	-0.09634532
-4.5175257	connected	-0.09634532
-4.19003	suggests	-0.09634532
-4.19003	hold	-0.22418176
-3.39497	both	-0.09634532
-3.6005259	together	-0.14306657
-4.5175257	firmly	-0.09634532
-4.5175257	rejects	-0.09634532
-4.5175257	socialist	-0.09634532
-4.5175257	ppe-de	-0.09634532
-4.5175257	reinstated	-0.09634532
-4.5175257	rejected	-0.09634532
-3.7570748	sitting	-0.09634532
-3.029534	regarding	-0.2912979
-4.5175257	oral	-0.09634532
-3.39497	capital	-0.16790092
-4.19003	tax	-0.09634532
-4.5175257	requesting	-0.09634532
-3.150909	taken	-0.14129862
-3.7570748	off	-0.15557675
-4.19003	correct	-0.09634532
-4.19003	grateful	-0.09634532
-4.5175257	removed	-0.09634532
-4.5175257	addressed	-0.09634532
-3.6005259	several	-0.09634535
-4.0042577	times	-0.09634532
-3.39497	decisions	-0.12919702
-4.5175257	moves	-0.09634532
-4.5175257	poettering	-0.09634532
-4.5175257	wurtz	-0.09634532
-3.7570748	speaking	-0.09634535
-3.6005259	lack	-0.32746106
-4.5175257	logic	-0.09634532
-4.5175257	preaching	-0.09634532
-4.5175257	went	-0.09634532
-3.39497	back	-0.12919702
-4.19003	perfectly	-0.09634532
-3.4856982	manner	-0.13492224
-3.6005259	doing	-0.09634532
-3.7570748	discussed	-0.09634532
-4.5175257	unanimous	-0.09634532
-4.5175257	ppe	-0.09634532
-4.5175257	eldr	-0.09634532
-4.5175257	lot	-0.09634532
-4.0042577	withdrawn	-0.28641233
-4.5175257	164	-0.09634532
-4.5175257	166	-0.09634532
-4.5175257	7	-0.09634532
-4.5175257	advertising	-0.09634532
-3.39497	much	-0.13340572
-4.5175257	counted	-0.09634532
-4.5175257	electronically	-0.09634532
-4.5175257	card	-0.09634532
-3.7570748	"	-0.09634532
-4.19003	add	-0.09634532
-3.7570748	declared	-0.09634535
-3.6005259	themselves	-0.14306657
-3.39497	result	-0.26490033
-4.5175257	presidency	-0.09634532
-4.5175257	room	-0.09634532
-4.19003	earlier	-0.09634532
-4.5175257	abide	-0.09634532
-4.19003	ruling	-0.09634532
-4.19003	plan	-0.09634532
-4.19003	indicated	-0.09634532
-4.19003	advance	-0.09634532
-3.4856982	did	-0.34631503
-4.5175257	happen	-0.09634532
-4.19003	appreciate	-0.09634532
-4.0042577	close	-0.09634532
-3.3199592	business	-0.15738015
-3.7570748	might	-0.14306657
-4.5175257	allowed	-0.09634532
-3.39497	give	-0.12919702
-4.5175257	explanation	-0.09634532
-4.0042577	useful	-0.09634532
-4.5175257	record	-0.09634532
-2.716394	state	-0.5166722
-3.1065736	how	-0.15312108
-4.5175257	perceive	-0.09634532
-3.3199592	own	-0.09634532
-3.4856982	analysis	-0.29536435
-4.5175257	reopen	-0.09634532
-3.7570748	asked	-0.09634532
-4.0042577	floor	-0.17726286
-4.19003	motion	-0.09634532
-3.4856982	call	-0.18106298
-4.19003	regret	-0.09634532
-3.6005259	let	-0.22841753
-4.0042577	leave	-0.09634532
-4.5175257	terribly	-0.09634532
-4.5175257	sorry	-0.09634532
-4.5175257	cox	-0.09634532
-3.4856982	see	-0.14306657
-3.2002904	even	-0.14811793
-3.39497	think	-0.23684962
-4.19003	entered	-0.09634532
-4.19003	minutes	-0.12919702
-4.0042577	adopt	-0.28641233
-3.4856982	tomorrow	-0.13492224
-4.5175257	explained	-0.09634532
-3.256016	clearly	-0.09634535
-4.5175257	workable	-0.09634532
-4.0042577	solution	-0.09634532
-3.1065736	take	-0.18693365
-3.3199592	account	-0.36419556
-4.0042577	additional	-0.09634532
-4.19003	explanations	-0.09634532
-4.19003	better	-0.09634532
-3.029534	than	-0.15081544
-4.19003	proceeding	-0.09634532
-4.5175257	time-consuming	-0.09634532
-4.19003	acceptable	-0.09634532
-4.5175257	records	-0.09634532
-3.6005259	correctly	-0.14306657
-4.0042577	voted	-0.09634532
-4.19003	object	-0.09634532
-3.6005259	accept	-0.17726286
-4.5175257	reservations	-0.09634532
-4.19003	pay	-0.22418176
-4.5175257	wording	-0.09634532
-4.5175257	reflect	-0.09634532
-3.1065736	necessary	-0.24888821
-3.39497	thus	-0.09634532
-4.0042577	amended	-0.09634532
-4.19003	advisers	-0.09634535
-2.9347765	transport	-0.23485045
-3.6005259	goods	-0.113725334
-3.3199592	commissioner	-0.25429016
-4.5175257	ladies	-0.09634532
-4.5175257	gentlemen	-0.09634532
-4.5175257	frank	-0.09634532
-4.19003	welcome	-0.22418176
-4.19003	council	-0.09634528
-4.0042577	harmonising	-0.23055105
-4.0042577	training	-0.17726286
-4.19003	road	-0.09634532
-4.19003	rail	-0.09634532
-4.19003	inland	-0.17726286
-4.5175257	waterway	-0.09634532
-4.0042577	subsidiarity	-0.13492224
-4.5175257	greatly	-0.09634532
-4.0042577	welcomed	-0.09634532
-4.19003	reading	-0.09634532
-4.5175257	satisfactorily	-0.09634532
-3.7570748	unanimously	-0.09634532
-3.2002904	amendment	-0.16631685
-2.7521524	regional	-0.26655403
-3.6005259	concerns	-0.200187
-4.5175257	timetable	-0.09634532
-3.7570748	implementing	-0.15557675
-3.4856982	directive	-0.15738015
-4.0042577	urge	-0.23055105
-2.9955988	support	-0.2426005
-4.5175257	setting	-0.09634532
-3.39497	specific	-0.09634532
-4.0042577	date	-0.17726286
-4.5175257	implement	-0.09634532
-4.19003	instead	-0.09634532
-4.19003	giving	-0.09634532
-3.6005259	three	-0.09634535
-4.19003	entry	-0.22418176
-4.0042577	force	-0.13492224
-4.5175257	introducing	-0.09634532
-3.4856982	flexibility	-0.13492224
-4.5175257	clause	-0.09634532
-4.19003	ensures	-0.22418176
-4.0042577	implemented	-0.09634532
-3.39497	without	-0.14858222
-4.0042577	delay	-0.17726286
-4.19003	endorse	-0.09634532
-4.5175257	renovation	-0.09634532
-3.39497	project	-0.09634528
-4.5175257	lasted	-0.09634532
-4.0042577	cut	-0.09634532
-4.5175257	route	-0.09634532
-2.7339053	between	-0.28892457
-4.5175257	north	-0.09634532
-4.19003	south	-0.09634532
-3.029534	europe	-0.22593911
-4.19003	traffic	-0.09634532
-4.5175257	diverted	-0.09634532
-4.19003	stretched	-0.09634532
-4.5175257	patience	-0.09634532
-4.19003	thousands	-0.22418176
-4.5175257	limit	-0.09634532
-4.5175257	hell	-0.09634532
-4.5175257	broke	-0.09634532
-4.5175257	loose	-0.09634532
-2.9955988	some	-0.17733887
-4.5175257	municipalities	-0.09634532
-4.5175257	province	-0.09634532
-4.5175257	prevention	-0.09634532
-4.19003	answer	-0.09634532
-3.6005259	step	-0.14306657
-3.256016	towards	-0.13860527
-4.5175257	well-trained	-0.09634532
-2.9072876	being	-0.09634532
-4.0042577	available	-0.09634532
-3.3199592	action	-0.116961464
-3.2002904	good	-0.1124606
-2.6103275	must	-0.3928188
-4.5175257	enacting	-0.09634532
-3.256016	law	-0.13999453
-3.150909	greater	-0.116961464
-3.2002904	make	-0.16178176
-4.5175257	sure	-0.09634532
-4.5175257	transposed	-0.09634532
-4.5175257	importantly	-0.09634532
-3.6005259	applied	-0.09634532
-4.5175257	afterwards	-0.09634532
-3.4856982	yet	-0.124952026
-3.150909	sector	-0.28790826
-2.833935	where	-0.21348426
-4.5175257	subsequently	-0.09634532
-4.5175257	lament	-0.09634532
-3.6005259	enforcement	-0.14306657
-3.7570748	address	-0.15557675
-4.5175257	sealing	-0.09634532
-4.5175257	hole	-0.09634532
-4.5175257	net	-0.09634532
-4.5175257	shutting	-0.09634532
-4.5175257	eyes	-0.09634532
-4.5175257	koch	-0.09634532
-4.19003	heart	-0.09634532
-4.19003	looks	-0.09634532
-3.7570748	examination	-0.15557675
-3.4856982	requirements	-0.1582847
-4.5175257	advisors	-0.09634532
-3.39497	working	-0.12919702
-4.5175257	transportation	-0.09634532
-4.19003	congratulate	-0.09634532
-3.6005259	excellent	-0.20690842
-3.7570748	rapporteur	-0.14858222
-3.7570748	pointed	-0.41135103
-4.0042577	accepted	-0.09634532
-4.0042577	six	-0.17726286
-4.19003	ten	-0.09634532
-3.3199592	forward	-0.11907794
-4.5175257	substance	-0.09634532
-3.1065736	other	-0.12278994
-4.5175257	retained	-0.09634532
-4.5175257	enactment	-0.09634532
-3.7570748	provide	-0.14306657
-4.0042577	tool	-0.09634532
-4.5175257	fight	-0.09634532
-4.5175257	safe	-0.09634532
-4.0042577	initiatives	-0.17726286
-4.19003	improve	-0.09634532
-2.857036	work	-0.19519815
-3.3199592	area	-0.17877895
-3.7570748	recent	-0.15557675
-4.5175257	events	-0.09634532
-4.19003	proved	-0.09634532
-4.5175257	exceptionally	-0.09634532
-4.5175257	accurate	-0.09634532
-3.7570748	technical	-0.09634532
-4.0042577	secondly	-0.28641233
-4.0042577	submitted	-0.09634532
-3.6005259	harmonisation	-0.14306657
-3.4856982	minimum	-0.18106298
-4.5175257	pity	-0.09634532
-4.0042577	sense	-0.22841753
-3.6005259	reasons	-0.13492224
-4.0042577	accidents	-0.09634532
-4.5175257	occurred	-0.09634532
-3.3199592	over	-0.1582847
-3.6005259	example	-0.20690842
-4.5175257	belgium	-0.09634532
-4.5175257	netherlands	-0.09634532
-4.5175257	lorries	-0.09634532
-4.19003	carrying	-0.09634532
-4.5175257	continued	-0.09634532
-4.5175257	drive	-0.09634532
-4.5175257	foggy	-0.09634532
-3.256016	conditions	-0.14049742
-4.5175257	pulled	-0.09634532
-4.19003	ships	-0.09634532
-4.0042577	eastern	-0.22418176
-4.5175257	moor	-0.09634532
-4.5175257	adjacent	-0.09634532
-4.5175257	obvious	-0.09634532
-3.6005259	risks	-0.14306657
-4.19003	entails	-0.09634532
-4.19003	furthermore	-0.09634532
-4.5175257	transpired	-0.09634532
-3.6005259	research	-0.17726286
-4.5175257	ports	-0.09634532
-4.5175257	finland	-0.09634532
-4.5175257	japan	-0.09634532
-4.19003	50	-0.09634532
-3.6005259	%	-0.200187
-4.5175257	containers	-0.09634532
-4.19003	partially	-0.09634532
-4.0042577	cargo	-0.09634532
-4.5175257	delivered	-0.09634532
-4.5175257	shipment	-0.09634532
-4.19003	short	-0.09634532
-4.5175257	compulsory	-0.09634532
-4.5175257	employ	-0.09634532
-3.256016	companies	-0.116961464
-3.3199592	1	-0.13860527
-3.3199592	major	-0.121678844
-3.2002904	problems	-0.18753317
-4.5175257	enforcing	-0.09634532
-3.7570748	especially	-0.13492224
-4.19003	smaller	-0.22418176
-4.19003	afford	-0.09634532
-4.5175257	dispose	-0.09634532
-4.5175257	mix	-0.09634532
-4.19003	causes	-0.09634532
-4.5175257	iso	-0.09634532
-4.5175257	9002	-0.09634532
-4.19003	certificates	-0.09634532
-4.5175257	possibly	-0.09634532
-4.0042577	include	-0.09634532
-4.5175257	finer	-0.09634532
-3.7570748	details	-0.15557675
-4.0042577	activities	-0.09634532
-4.5175257	annual	-0.09634532
-3.256016	reports	-0.11907794
-4.0042577	company	-0.09634532
-4.5175257	analyses	-0.09634532
-4.19003	remains	-0.09634532
-3.7570748	mention	-0.14306657
-3.6005259	proper	-0.09634535
-3.4856982	agreements	-0.15557675
-4.5175257	concluded	-0.09634532
-4.0042577	enter	-0.17726286
-3.4856982	deal	-0.29536435
-3.7570748	until	-0.09634535
-4.19003	july	-0.09634532
-4.5175257	2001	-0.09634532
-3.6005259	say	-0.13340572
-4.5175257	eighteen	-0.09634532
-4.19003	gives	-0.09634532
-4.0042577	competitive	-0.09634532
-4.5175257	edge	-0.09634532
-4.19003	interim	-0.09634532
-4.0042577	anything	-0.09634532
-4.5175257	prioritise	-0.09634532
-4.19003	aspects	-0.09634532
-4.0042577	transported	-0.09634535
-4.19003	waterways	-0.09634532
-4.19003	incorporate	-0.09634532
-3.150909	part	-0.33949345
-4.5175257	acquis	-0.09634532
-4.5175257	communautaire	-0.09634532
-4.5175257	acceding	-0.09634532
-3.3199592	importance	-0.13860527
-4.0042577	highlighted	-0.17726286
-4.5175257	regular	-0.09634532
-3.4856982	basis	-0.24800979
-4.19003	rightly	-0.09634532
-4.0042577	ever	-0.09634532
-3.7570748	increasing	-0.09634532
-4.5175257	volume	-0.09634532
-4.19003	passing	-0.09634532
-3.256016	through	-0.1509498
-4.5175257	kinds	-0.09634532
-4.5175257	known	-0.09634532
-4.5175257	unknown	-0.09634532
-4.5175257	employees	-0.09634532
-3.029534	social	-0.12992336
-4.0042577	environment	-0.17726286
-3.4856982	having	-0.13492224
-4.19003	stringent	-0.22418176
-3.7570748	relevant	-0.14306657
-3.6005259	standards	-0.09634528
-4.0042577	laid	-0.28641233
-3.3199592	down	-0.11907794
-4.5175257	95/35	-0.09634532
-4.19003	/	-0.22418176
-4.19003	ec	-0.09634532
-3.6005259	seem	-0.18106298
-4.0042577	sufficiently	-0.09634532
-4.5175257	adequate	-0.09634532
-4.5175257	advise	-0.09634532
-3.6005259	responsible	-0.200187
-4.19003	organisation	-0.09634532
-4.19003	reached	-0.09634532
-4.5175257	examinations	-0.09634532
-4.5175257	preferred	-0.09634532
-3.6005259	uniform	-0.14306657
-3.6005259	set	-0.124952026
-4.5175257	modules	-0.09634532
-4.0042577	established	-0.09634532
-4.19003	equal	-0.09634532
-4.0042577	value	-0.09634532
-4.5175257	internationally	-0.09634532
-4.19003	feasible	-0.22418176
-4.19003	finally	-0.22418176
-4.5175257	logical	-0.09634532
-4.5175257	wholehearted	-0.09634532
-3.7570748	though	-0.09634528
-4.0042577	nonetheless	-0.09634532
-3.6005259	great	-0.1124606
-4.19003	significance	-0.09634532
-4.5175257	convinced	-0.09634532
-3.7570748	fall	-0.09634535
-4.5175257	fertile	-0.09634532
-4.0042577	ground	-0.09634532
-4.5175257	paid	-0.09634532
-3.7570748	roads	-0.23055105
-4.0042577	sea	-0.17726286
-4.5175257	dealing	-0.09634532
-4.5175257	19	-0.09634532
-4.5175257	march	-0.09634532
-4.5175257	responded	-0.09634532
-4.19003	relatively	-0.09634532
-4.19003	quickly	-0.09634532
-4.5175257	lag	-0.09634532
-4.19003	little	-0.09634535
-3.4856982	long	-0.09634532
-4.5175257	fault	-0.09634532
-4.19003	achieve	-0.09634528
-4.19003	second	-0.15557675
-3.3199592	mentioned	-0.14516987
-3.2002904	cases	-0.200187
-4.5175257	country-specific	-0.09634532
-3.256016	rather	-0.22555012
-4.5175257	sceptical	-0.09634532
-4.19003	sweden	-0.22418176
-4.19003	germany	-0.09634532
-4.19003	italy	-0.09634532
-4.0042577	austria	-0.09634532
-4.19003	live	-0.17726286
-4.5175257	monitor	-0.09634532
-4.0042577	carefully	-0.09634532
-4.5175257	inadequate	-0.09634532
-4.19003	third	-0.09634532
-4.5175257	rack	-0.09634532
-4.0042577	transit	-0.17726286
-3.4856982	country	-0.22841753
-4.5175257	plays	-0.09634532
-2.57176	competition	-0.39015183
-4.19003	worse	-0.09634532
-4.5175257	unilaterally	-0.09634532
-4.0042577	keep	-0.09634532
-4.19003	understand	-0.09634532
-4.5175257	institutions	-0.09634532
-4.5175257	cooperate	-0.09634532
-4.19003	current	-0.09634532
-3.4856982	cooperation	-0.17726286
-4.19003	magnificent	-0.09634532
-3.7570748	briefly	-0.15557675
-4.5175257	interventions	-0.09634532
-3.4856982	priorities	-0.16473855
-4.19003	field	-0.09634532
-4.5175257	simpson	-0.09634532
-3.4856982	process	-0.17979258
-4.0042577	never	-0.09634532
-3.6005259	granted	-0.09634532
-4.5175257	margins	-0.09634532
-4.19003	guarantees	-0.09634532
-3.6005259	day	-0.09634528
-4.5175257	worst	-0.09634532
-4.5175257	margarine	-0.09634532
-4.5175257	kilos	-0.09634532
-4.5175257	paint	-0.09634532
-4.5175257	led	-0.09634532
-4.19003	genuine	-0.09634532
-4.19003	disaster	-0.09634532
-4.5175257	guaranteeing	-0.09634532
-4.19003	maximum	-0.09634532
-4.19003	degree	-0.09634532
-3.39497	further	-0.09634528
-3.7570748	consider	-0.16790092
-4.19003	types	-0.22418176
-4.5175257	week	-0.09634532
-4.0042577	holding	-0.17726286
-4.5175257	erika	-0.09634532
-4.5175257	discuss	-0.09634532
-4.0042577	terms	-0.09634532
-3.7570748	priority	-0.12919702
-2.9641237	objective	-0.40664226
-4.19003	repeat	-0.09634532
-4.19003	appreciation	-0.09634532
-3.7570748	speakers	-0.15557675
-4.19003	closed	-0.09634532
-4.5175257	12	-0.09634532
-4.19003	p.m.	-0.09634532
-4.19003	delays	-0.09634532
-4.19003	cen	-0.09634532
-3.6005259	making	-0.09634535
-3.7570748	apply	-0.09634532
-4.5175257	annexes	-0.09634532
-4.19003	adapted	-0.09634532
-4.0042577	industrial	-0.09634532
-4.0042577	developments	-0.09634532
-3.39497	job	-0.34631503
-4.0042577	respect	-0.14306657
-4.5175257	amend	-0.09634532
-4.5175257	94/55	-0.09634532
-4.0042577	obliged	-0.28641233
-3.0663478	national	-0.17915878
-4.19003	brief	-0.09634532
-4.5175257	completes	-0.09634532
-3.6005259	cause	-0.09634532
-4.0042577	unnecessary	-0.09634532
-4.5175257	cost	-0.09634532
-4.5175257	uncertainty	-0.09634532
-4.5175257	affect	-0.09634532
-4.19003	existing	-0.09634535
-3.3199592	community	-0.14306657
-4.19003	consequently	-0.09634532
-3.6005259	full	-0.09634535
-4.5175257	obtain	-0.09634532
-4.0042577	powers	-0.09634532
-4.5175257	decides	-0.09634532
-4.19003	impose	-0.09634532
-4.19003	experts	-0.09634532
-3.3199592	under	-0.19144802
-4.19003	regulatory	-0.09634532
-4.19003	procedures	-0.09634532
-4.0042577	exercise	-0.09634532
-4.5175257	conferred	-0.09634532
-4.5175257	afresh	-0.09634532
-4.5175257	june	-0.09634532
-4.5175257	dates	-0.09634532
-3.3199592	could	-0.21342078
-4.5175257	latest	-0.09634532
-4.19003	comitology	-0.22418176
-4.19003	relate	-0.09634532
-3.4856982	reference	-0.58744234
-4.5175257	recitals	-0.09634532
-2.716394	within	-0.41458452
-4.5175257	worded	-0.09634532
-4.5175257	addition	-0.09634532
-3.3199592	transparency	-0.14516987
-4.5175257	allows	-0.09634532
-4.5175257	vacuum	-0.09634532
-4.19003	tanks	-0.09634532
-4.0042577	temperatures	-0.09634532
-4.19003	below	-0.09634532
-4.19003	-20ºc	-0.09634532
-4.0042577	special	-0.14306657
-3.7570748	northern	-0.14306657
-2.857036	regions	-0.290937
-4.0042577	intended	-0.17726286
-4.19003	tankers	-0.09634532
-4.0042577	service	-0.17726286
-4.0042577	1997	-0.09634532
-3.256016	continue	-0.40450883
-3.39497	used	-0.2770454
-3.6005259	provided	-0.09634528
-4.5175257	constructed	-0.09634532
-4.5175257	maintained	-0.09634532
-4.5175257	realise	-0.09634532
-4.0042577	small	-0.09634532
-4.19003	colleagues	-0.09634532
-3.7570748	plenary	-0.26044065
-4.5175257	exciting	-0.09634532
-4.5175257	love	-0.09634532
-4.19003	longer	-0.09634532
-3.7570748	cold	-0.09634532
-4.19003	climate	-0.09634532
-4.5175257	prevails	-0.09634532
-4.5175257	intrinsically	-0.09634532
-3.39497	concern	-0.12919702
-4.5175257	frost-resistance	-0.09634532
-4.5175257	ratings	-0.09634532
-3.6005259	sufficient	-0.13492224
-4.5175257	shores	-0.09634532
-4.5175257	mediterranean	-0.09634532
-3.4856982	hard	-0.22841753
-4.19003	imagine	-0.09634532
-4.5175257	lapland	-0.09634532
-4.0042577	lower	-0.17726286
-3.7570748	remember	-0.15557675
-4.5175257	frost	-0.09634532
-4.5175257	rating	-0.09634532
-4.5175257	lowered	-0.09634532
-4.5175257	-40ºc	-0.09634532
-3.256016	level	-0.36885375
-3.4856982	consideration	-0.1772629
-4.5175257	permission	-0.09634532
-4.5175257	begin	-0.09634532
-4.5175257	expressing	-0.09634532
-4.5175257	admiration	-0.09634532
-3.1065736	way	-0.19255796
-4.5175257	executed	-0.09634532
-4.5175257	quick	-0.09634532
-4.19003	changeover	-0.09634532
-4.5175257	chairmanship	-0.09634532
-4.5175257	superb	-0.09634532
-3.4856982	hand	-0.18106298
-4.5175257	confident	-0.09634532
-4.19003	railways	-0.09634532
-4.19003	contribution	-0.22418176
-4.5175257	essentially	-0.09634532
-4.5175257	nuisance	-0.09634532
-3.7570748	discussing	-0.14306657
-4.5175257	entail	-0.09634532
-3.6005259	changes	-0.13492224
-3.39497	most	-0.13183004
-4.5175257	purely	-0.09634532
-4.5175257	nature	-0.09634532
-4.5175257	worth	-0.09634532
-4.5175257	emphasising	-0.09634532
-3.7570748	broad	-0.14306657
-4.0042577	perspective	-0.17726286
-4.0042577	beneficial	-0.09634532
-4.0042577	creates	-0.09634532
-4.5175257	exploiting	-0.09634532
-4.5175257	possibilities	-0.09634532
-3.7570748	internal	-0.15557675
-2.9955988	market	-0.2188237
-3.7570748	large	-0.09634532
-4.5175257	quantities	-0.09634532
-4.19003	around	-0.09634532
-4.0042577	makes	-0.09634532
-4.19003	governing	-0.09634532
-4.5175257	obtaining	-0.09634532
-4.5175257	extraordinarily	-0.09634532
-4.5175257	prerequisites	-0.09634532
-4.5175257	genuinely	-0.09634532
-4.5175257	running	-0.09634532
-3.4856982	far	-0.09634535
-4.19003	conclude	-0.15557675
-4.5175257	commenting	-0.09634532
-4.5175257	namely	-0.09634532
-4.5175257	ari	-0.09634532
-4.19003	vatanen	-0.09634532
-4.0042577	ways	-0.17726286
-4.5175257	differ	-0.09634532
-4.19003	approving	-0.09634532
-4.19003	parts	-0.22418176
-4.5175257	materials	-0.09634532
-4.5175257	packaging	-0.09634532
-4.0042577	affected	-0.17726286
-4.19003	establishing	-0.22418176
-4.19003	flexible	-0.09634532
-4.5175257	unambiguous	-0.09634532
-4.19003	acknowledged	-0.09634532
-3.39497	reason	-0.22555012
-4.19003	produced	-0.09634532
-4.19003	sound	-0.09634532
-4.5175257	united	-0.09634532
-4.5175257	nations	-0.09634532
-2.8814354	economic	-0.30278593
-4.19003	none	-0.09634532
-4.5175257	expeditiously	-0.09634532
-4.0042577	thing	-0.09634535
-4.5175257	arrangement	-0.09634532
-4.19003	stop	-0.09634532
-4.5175257	borders	-0.09634532
-4.19003	goes	-0.09634532
-4.5175257	beyond	-0.09634532
-4.19003	hence	-0.09634532
-3.4856982	certainly	-0.09634535
-4.5175257	far-reaching	-0.09634532
-4.19003	provisions	-0.09634532
-3.4856982	she	-0.13492224
-4.0042577	prepared	-0.17726286
-4.19003	inform	-0.09634532
-4.5175257	writing	-0.09634532
-3.7570748	matters	-0.09634532
-3.6005259	stand	-0.09634535
-4.0042577	stage	-0.09634532
-4.19003	negotiations	-0.09634532
-4.19003	supplements	-0.09634532
-4.5175257	held	-0.09634532
-4.5175257	october	-0.09634532
-4.5175257	standardisation	-0.09634532
-4.0042577	required	-0.09634532
-4.5175257	carry	-0.09634532
-3.7570748	currently	-0.14306657
-4.0042577	allow	-0.09634532
-4.5175257	differentiating	-0.09634532
-4.0042577	elements	-0.17726286
-4.19003	demonstrate	-0.09634532
-3.7570748	diversity	-0.15557675
-4.5175257	ours	-0.09634532
-4.19003	moment	-0.09634532
-4.5175257	spoke	-0.09634532
-4.5175257	20	-0.09634532
-4.19003	degrees	-0.22418176
-4.5175257	zero	-0.09634532
-4.5175257	40	-0.09634532
-4.5175257	accepts	-0.09634532
-4.5175257	contributions	-0.09634532
-3.7570748	parliamentary	-0.14306657
-3.7570748	contained	-0.23055105
-4.0042577	specifically	-0.09634532
-4.0042577	four	-0.09634535
-2.9641237	structural	-0.29329804
-3.39497	funds	-0.18010983
-3.3199592	cohesion	-0.1598282
-3.6005259	fund	-0.14306657
-3.7570748	coordination	-0.15557675
-4.5175257	pleasing	-0.09634532
-4.0042577	speech	-0.09634532
-4.5175257	regarded	-0.09634532
-4.5175257	kingdom	-0.09634532
-3.39497	wales	-0.12919702
-4.0042577	status	-0.09634532
-4.19003	looking	-0.09634532
-4.5175257	alleviate	-0.09634532
-4.5175257	difficulties	-0.09634532
-4.19003	undoubtedly	-0.09634532
-4.0042577	face	-0.17726286
-4.19003	poverty	-0.09634532
-4.0042577	growing	-0.09634532
-4.5175257	gap	-0.09634532
-4.5175257	rich	-0.09634532
-4.0042577	poor	-0.09634532
-4.5175257	widen	-0.09634532
-4.19003	restructuring	-0.09634532
-4.5175257	wider	-0.09634532
-4.0042577	improvement	-0.17726286
-4.19003	whole	-0.13492224
-4.5175257	base	-0.09634532
-4.5175257	principality	-0.09634532
-4.5175257	deeply	-0.09634532
-4.5175257	damaging	-0.09634532
-4.5175257	belief	-0.09634532
-4.19003	granting	-0.09634532
-4.19003	assistance	-0.09634532
-4.0042577	success	-0.09634535
-3.7570748	government	-0.124952026
-4.5175257	sadly	-0.09634532
-4.19003	recognition	-0.22418176
-4.5175257	faces	-0.09634532
-4.5175257	highlight	-0.09634532
-3.39497	issues	-0.13860527
-4.5175257	forefront	-0.09634532
-3.39497	points	-0.124952026
-4.5175257	relation	-0.09634532
-4.19003	additionality	-0.22418176
-4.5175257	dissatisfied	-0.09634532
-4.19003	figures	-0.09634532
-4.5175257	hidden	-0.09634532
-4.19003	uk	-0.09634532
-4.5175257	matched	-0.09634532
-4.0042577	funding	-0.09634532
-3.39497	projects	-0.15557675
-4.19003	challenge	-0.09634532
-4.0042577	private	-0.15557675
-4.19003	surely	-0.09634532
-4.5175257	providing	-0.09634532
-4.5175257	impetus	-0.09634532
-4.19003	expenditure	-0.22418176
-4.19003	involved	-0.22418176
-4.0042577	planning	-0.09634532
-4.19003	monies	-0.22418176
-4.0042577	spent	-0.09634532
-4.19003	transparent	-0.22418176
-3.7570748	takes	-0.09634532
-4.5175257	friend	-0.09634532
-4.19003	views	-0.09634532
-4.5175257	differently	-0.09634532
-3.256016	view	-0.22555012
-3.7570748	governments	-0.17726286
-4.19003	decentralisation	-0.09634532
-4.19003	higher	-0.09634532
-4.0042577	education	-0.09634532
-4.5175257	unquestionably	-0.09634532
-4.5175257	evening	-0.09634532
-2.8814354	development	-0.3311797
-4.0042577	wealth	-0.09634532
-4.5175257	depend	-0.09634532
-4.5175257	livelihood	-0.09634532
-4.0042577	drafting	-0.15557675
-3.3199592	industry	-0.21392088
-4.19003	external	-0.09634532
-4.5175257	trade	-0.09634532
-4.0042577	energy	-0.14306657
-4.5175257	nos	-0.09634532
-4.0042577	2	-0.09634532
-3.029534	employment	-0.3169889
-4.19003	affairs	-0.09634535
-4.5175257	tourism	-0.09634532
-3.39497	economy	-0.21142438
-4.5175257	financially	-0.09634532
-3.39497	local	-0.09634528
-4.0042577	schemes	-0.09634532
-4.19003	develop	-0.09634532
-3.7570748	opportunities	-0.18106298
-4.0042577	strengthen	-0.17726286
-4.19003	past	-0.09634535
-4.5175257	viewed	-0.09634532
-3.7570748	potential	-0.09634535
-4.5175257	provider	-0.09634532
-4.5175257	fit	-0.09634532
-4.19003	exclusion	-0.09634532
-3.7570748	serious	-0.09634532
-4.5175257	needing	-0.09634532
-4.19003	constructive	-0.09634532
-4.5175257	rejection	-0.09634532
-4.19003	powerful	-0.09634532
-4.19003	offer	-0.09634532
-4.5175257	seeking	-0.09634532
-3.2002904	her	-0.17219675
-4.5175257	flautre	-0.09634532
-4.5175257	drew	-0.09634532
-4.5175257	sorely	-0.09634532
-4.19003	lacking	-0.09634532
-4.5175257	desperately	-0.09634532
-4.0042577	needed	-0.09634535
-3.3199592	proposals	-0.121678844
-4.5175257	pillars	-0.09634532
-3.7570748	strategy	-0.09634535
-4.0042577	fields	-0.17726286
-2.9641237	guidelines	-0.15954491
-4.5175257	regretted	-0.09634532
-4.5175257	linking	-0.09634532
-3.4856982	effect	-0.12919702
-4.0042577	2000-2006	-0.09634532
-4.5175257	reassure	-0.09634532
-4.5175257	oversight	-0.09634532
-4.5175257	dealt	-0.09634532
-4.5175257	constructively	-0.09634532
-4.5175257	mandate	-0.09634532
-4.5175257	starting	-0.09634532
-4.19003	agriculture	-0.09634532
-3.3199592	rural	-0.36181036
-4.19003	deficiencies	-0.09634532
-4.0042577	networks	-0.09634532
-4.5175257	infrastructures	-0.09634532
-3.6005259	generally	-0.09634535
-4.5175257	low	-0.09634532
-4.5175257	seasonal	-0.09634532
-4.19003	lacks	-0.09634532
-4.5175257	exacerbates	-0.09634532
-4.5175257	exodus	-0.09634532
-4.19003	consequences	-0.09634532
-4.5175257	inspire	-0.09634532
-4.19003	young	-0.22418176
-4.5175257	disappearing	-0.09634532
-4.19003	getting	-0.09634532
-4.19003	finding	-0.09634532
-4.5175257	outside	-0.09634532
-4.5175257	unfavourable	-0.09634532
-3.7570748	infrastructure	-0.09634532
-4.5175257	obstacle	-0.09634532
-4.5175257	establishment	-0.09634532
-4.19003	creation	-0.09634532
-3.4856982	jobs	-0.12919702
-4.19003	almost	-0.09634532
-4.5175257	fifths	-0.09634532
-4.5175257	territory	-0.09634532
-4.19003	provides	-0.09634532
-4.5175257	5.5	-0.09634532
-4.0042577	quarters	-0.17726286
-4.5175257	farm	-0.09634532
-3.6005259	workers	-0.14306657
-4.5175257	part-time	-0.09634532
-3.4856982	require	-0.09634532
-4.19003	incomes	-0.22418176
-3.7570748	conclusion	-0.1954268
-4.0042577	conclusions	-0.09634532
-4.5175257	maintaining	-0.09634532
-4.0042577	population	-0.09634532
-4.5175257	thanking	-0.09634532
-3.7570748	carried	-0.18106298
-4.0042577	least	-0.09634528
-3.7570748	spirit	-0.14306657
-4.5175257	useless	-0.09634532
-3.7570748	nothing	-0.09634535
-4.19003	hot	-0.09634532
-4.19003	rapid	-0.09634532
-4.0042577	efficient	-0.09634532
-4.19003	boost	-0.09634532
-4.5175257	attaining	-0.09634532
-4.19003	generate	-0.09634532
-4.0042577	real	-0.09634532
-4.19003	entrepreneurs	-0.09634532
-4.19003	guarantee	-0.09634532
-4.19003	sources	-0.22418176
-4.0042577	businesspeople	-0.17726286
-4.19003	participate	-0.22418176
-4.5175257	medium-sized	-0.09634532
-4.5175257	businesses	-0.09634532
-4.5175257	above	-0.09634532
-4.19003	distribution	-0.17726286
-4.5175257	marginalised	-0.09634532
-4.5175257	managing	-0.09634532
-4.5175257	receiving	-0.09634532
-4.5175257	missed	-0.09634532
-3.6005259	opportunity	-0.2292697
-4.5175257	attain	-0.09634532
-4.19003	rapidly	-0.09634532
-4.5175257	overcome	-0.09634532
-4.0042577	disparities	-0.14306657
-4.5175257	seek	-0.09634532
-4.0042577	crucial	-0.09634532
-4.0042577	complete	-0.17726286
-4.5175257	technologies	-0.09634532
-4.5175257	communications	-0.09634532
-4.5175257	renewable	-0.09634532
-4.5175257	energies	-0.09634532
-4.5175257	incumbent	-0.09634532
-3.3199592	upon	-0.124952026
-4.5175257	colleague	-0.09634532
-4.19003	achieved	-0.09634532
-4.5175257	discredited	-0.09634532
-3.150909	policies	-0.20438145
-4.5175257	conservative	-0.09634532
-4.0042577	british	-0.17726286
-4.5175257	suggest	-0.09634532
-4.5175257	reads	-0.09634532
-3.39497	regulation	-0.17979258
-4.5175257	extensive	-0.09634532
-4.19003	focus	-0.14306657
-4.5175257	minds	-0.09634532
-3.4856982	essential	-0.17726286
-4.5175257	identify	-0.09634532
-4.5175257	skills	-0.09634532
-4.5175257	hi-tech	-0.09634532
-4.5175257	media	-0.09634532
-4.5175257	losing	-0.09634532
-3.4856982	growth	-0.09634528
-4.5175257	industries	-0.09634532
-4.0042577	operation	-0.28641233
-4.5175257	round	-0.09634532
-4.5175257	instructive	-0.09634532
-4.5175257	telling	-0.09634532
-4.0042577	creating	-0.09634532
-4.5175257	layers	-0.09634532
-3.7570748	bureaucracy	-0.09634532
-4.0042577	red	-0.28641233
-4.5175257	tape	-0.09634532
-4.19003	shifting	-0.09634532
-4.5175257	halfway	-0.09634532
-4.5175257	resulting	-0.09634532
-4.5175257	inevitable	-0.09634532
-4.5175257	underspends	-0.09634532
-4.19003	budgetary	-0.09634532
-4.19003	requirement	-0.22418176
-3.6005259	implementation	-0.13492224
-4.0042577	left	-0.09634532
-4.5175257	interpretation	-0.09634532
-4.5175257	desk	-0.09634532
-4.5175257	officer	-0.09634532
-4.5175257	civil	-0.09634532
-4.19003	coherence	-0.09634532
-4.5175257	directorate	-0.09634532
-4.0042577	while	-0.13492224
-4.5175257	respecting	-0.09634532
-4.5175257	indicative	-0.09634532
-4.5175257	assist	-0.09634532
-4.5175257	managers	-0.09634532
-4.5175257	fund-users	-0.09634532
-4.5175257	regeneration	-0.09634532
-4.5175257	inject	-0.09634532
-4.19003	entrepreneurial	-0.09634532
-4.5175257	structurally	-0.09634532
-4.5175257	weak	-0.09634532
-4.5175257	eventually	-0.09634532
-4.5175257	onto	-0.09634532
-4.5175257	attracting	-0.09634532
-4.5175257	substantial	-0.09634532
-4.5175257	investor	-0.09634532
-3.4856982	key	-0.09634535
-4.5175257	gone	-0.09634532
-4.5175257	depth	-0.09634532
-4.19003	took	-0.09634532
-4.19003	stated	-0.09634532
-4.5175257	heard	-0.09634532
-4.5175257	badly	-0.09634532
-4.0042577	behind	-0.09634532
-4.5175257	hopefully	-0.09634532
-4.5175257	stands	-0.09634532
-3.4856982	help	-0.22589287
-4.5175257	mid-term	-0.09634532
-4.5175257	appraisal	-0.09634532
-4.0042577	practical	-0.09634532
-4.5175257	grew	-0.09634532
-4.0042577	debated	-0.09634532
-3.7570748	raised	-0.15557675
-4.5175257	concentrate	-0.09634532
-4.0042577	assessing	-0.09634532
-3.4856982	use	-0.3396219
-4.19003	steer	-0.09634532
-4.5175257	bearing	-0.09634532
-4.5175257	mind	-0.09634532
-4.5175257	aim	-0.09634532
-4.5175257	reduce	-0.09634532
-4.5175257	inequality	-0.09634532
-4.5175257	emphasises	-0.09634532
-3.7570748	responsibility	-0.09634532
-4.19003	players	-0.22418176
-4.19003	smes	-0.09634532
-4.19003	considers	-0.09634532
-4.0042577	remote	-0.15557675
-4.19003	peripheral	-0.09634532
-3.4856982	increase	-0.2094372
-4.5175257	interaction	-0.09634532
-4.5175257	towns	-0.09634532
-4.5175257	oppose	-0.09634532
-3.7570748	excessive	-0.15557675
-4.19003	control	-0.09634532
-3.6005259	central	-0.15557675
-4.0042577	administration	-0.17726286
-4.5175257	exercises	-0.09634532
-4.5175257	calling	-0.09634532
-4.19003	root	-0.09634532
-4.5175257	watered	-0.09634532
-3.3199592	often	-0.09634532
-4.5175257	slow	-0.09634532
-4.19003	complicated	-0.09634532
-4.5175257	processes	-0.09634532
-4.5175257	lasting	-0.09634532
-3.6005259	benefit	-0.09634535
-4.5175257	efficiently	-0.09634532
-4.5175257	flexibly	-0.09634532
-4.5175257	productive	-0.09634532
-3.7570748	interesting	-0.15557675
-4.19003	general	-0.09634528
-4.5175257	supports	-0.09634532
-4.19003	forget	-0.09634532
-4.5175257	main	-0.09634532
-4.19003	directives	-0.09634532
-4.0042577	results	-0.17726286
-4.19003	representatives	-0.22418176
-4.0042577	insufficient	-0.09634532
-4.19003	condition	-0.09634532
-4.0042577	achieving	-0.09634532
-4.5175257	mistaken	-0.09634532
-4.19003	using	-0.09634532
-4.19003	gross	-0.22418176
-4.5175257	domestic	-0.09634532
-4.19003	product	-0.09634532
-4.0042577	per	-0.09634532
-4.5175257	inhabitant	-0.09634532
-4.5175257	sole	-0.09634532
-4.5175257	indicator	-0.09634532
-3.256016	unemployment	-0.11520561
-4.5175257	study	-0.09634532
-4.0042577	indicators	-0.17726286
-4.0042577	enable	-0.09634532
-4.5175257	societies	-0.09634532
-4.5175257	evolving	-0.09634532
-4.19003	25	-0.09634532
-4.19003	prosperous	-0.22418176
-4.19003	enjoy	-0.09634532
-4.5175257	act	-0.09634532
-4.5175257	decisively	-0.09634532
-4.5175257	strategically	-0.09634532
-3.150909	given	-0.29438686
-4.0042577	term	-0.09634532
-4.0042577	late	-0.09634532
-4.0042577	plans	-0.28641233
-4.5175257	drafted	-0.09634532
-4.19003	revision	-0.17726286
-4.5175257	assessment	-0.09634532
-4.5175257	bureaucratic	-0.09634532
-4.19003	dimension	-0.09634532
-4.5175257	officials	-0.09634532
-4.19003	responsibilities	-0.09634532
-3.6005259	communication	-0.09634535
-3.7570748	experience	-0.09634532
-4.19003	productivity	-0.09634532
-4.19003	comprehensive	-0.09634532
-4.19003	partnership	-0.09634532
-3.4856982	authorities	-0.15557675
-4.5175257	urged	-0.09634532
-4.19003	attach	-0.09634532
-4.0042577	integrated	-0.09634532
-4.5175257	strategies	-0.09634532
-4.5175257	revitalising	-0.09634532
-4.19003	relations	-0.22418176
-4.19003	latter	-0.09634532
-3.4856982	urban	-0.13492224
-4.5175257	renewal	-0.09634532
-4.19003	cities	-0.09634532
-4.5175257	strike	-0.09634532
-4.0042577	balance	-0.200187
-4.5175257	promoting	-0.09634532
-3.7570748	improving	-0.15557675
-4.19003	lives	-0.09634532
-4.5175257	city	-0.09634532
-4.5175257	dwellers	-0.09634532
-4.5175257	build	-0.09634532
-4.19003	played	-0.22418176
-4.5175257	mainly	-0.09634532
-4.5175257	upgrading	-0.09634532
-4.5175257	water	-0.09634532
-4.0042577	treatment	-0.09634532
-4.0042577	related	-0.09634532
-3.6005259	financial	-0.13492224
-4.5175257	spending	-0.09634532
-4.5175257	leaders	-0.09634532
-4.5175257	berlin	-0.09634532
-4.5175257	summit	-0.09634532
-4.5175257	1989	-0.09634532
-4.5175257	1993	-0.09634532
-4.19003	1994	-0.09634532
-4.19003	helped	-0.22418176
-3.6005259	competitiveness	-0.14306657
-4.5175257	consolidate	-0.09634532
-4.5175257	permanent	-0.09634532
-3.7570748	progress	-0.09634532
-4.19003	helping	-0.09634532
-3.3199592	less	-0.121678844
-4.5175257	well-off	-0.09634532
-3.39497	society	-0.16790092
-4.5175257	numerous	-0.09634532
-4.5175257	occasions	-0.09634532
-4.19003	disagreed	-0.09634532
-3.4856982	approach	-0.09634532
-4.19003	encourage	-0.09634532
-4.19003	along	-0.09634532
-4.19003	nevertheless	-0.09634532
-4.5175257	commend	-0.09634532
-4.19003	added	-0.09634532
-4.5175257	annex	-0.09634532
-4.5175257	mccarthy	-0.09634532
-4.19003	rapporteurs	-0.09634532
-4.19003	unfortunately	-0.22418176
-4.5175257	bernié	-0.09634532
-4.5175257	blame	-0.09634532
-4.5175257	raising	-0.09634532
-4.5175257	reiterate	-0.09634532
-4.19003	thirdly	-0.22418176
-4.5175257	broadly	-0.09634532
-4.5175257	deviate	-0.09634532
-4.0042577	emphasis	-0.09634532
-3.6005259	placed	-0.200187
-3.4856982	sustainable	-0.40664232
-4.5175257	personally	-0.09634532
-4.0042577	totally	-0.09634532
-4.5175257	islander	-0.09634532
-4.5175257	dissatisfaction	-0.09634532
-4.19003	island	-0.09634532
-4.19003	deserves	-0.09634532
-4.19003	ongoing	-0.09634532
-3.3199592	article	-0.14306657
-4.5175257	158	-0.09634532
-4.0042577	treaty	-0.121678844
-4.5175257	amsterdam	-0.09634532
-4.19003	islands	-0.09634532
-4.5175257	assume	-0.09634532
-4.0042577	code	-0.11907794
-4.5175257	conduct	-0.09634532
-4.5175257	abreast	-0.09634532
-4.5175257	half	-0.09634532
-4.5175257	earned	-0.09634532
-4.5175257	praise	-0.09634532
-4.0042577	open	-0.09634532
-4.5175257	attentive	-0.09634532
-4.5175257	sides	-0.09634532
-4.19003	openness	-0.09634532
-4.0042577	establish	-0.09634532
-4.19003	review	-0.09634532
-4.19003	2003	-0.09634532
-4.5175257	influence	-0.09634532
-4.19003	phase	-0.09634532
-4.19003	programming	-0.09634532
-4.5175257	entering	-0.09634532
-4.19003	called	-0.09634532
-4.19003	manage	-0.09634532
-4.5175257	routine	-0.09634532
-3.7570748	challenges	-0.09634535
-4.19003	subsidies	-0.09634532
-4.5175257	interfaces	-0.09634532
-4.5175257	subsidiary	-0.09634532
-3.4856982	enlargement	-0.13492224
-3.7570748	considerable	-0.09634532
-4.19003	impact	-0.09634532
-4.5175257	geographical	-0.09634532
-4.5175257	invite	-0.09634532
-4.5175257	involve	-0.09634532
-4.5175257	redistribute	-0.09634532
-4.0042577	total	-0.09634532
-4.5175257	appropriation	-0.09634532
-4.19003	completely	-0.09634532
-4.5175257	absent	-0.09634532
-4.5175257	tend	-0.09634532
-4.5175257	nowadays	-0.09634532
-4.5175257	accuse	-0.09634532
-4.5175257	unavailable	-0.09634532
-4.19003	response	-0.09634532
-3.7570748	going	-0.23055105
-4.5175257	proportion	-0.09634532
-4.19003	operations	-0.22418176
-4.19003	capable	-0.22418176
-4.5175257	loud	-0.09634532
-4.5175257	publicity	-0.09634532
-2.9072876	aid	-0.20420058
-4.5175257	whenever	-0.09634532
-4.5175257	repair	-0.09634532
-4.19003	damage	-0.22418176
-4.5175257	caused	-0.09634532
-4.19003	monetary	-0.09634532
-3.7570748	criteria	-0.09634532
-4.5175257	reinforces	-0.09634532
-4.19003	inequalities	-0.09634532
-4.5175257	shape	-0.09634532
-4.5175257	probable	-0.09634532
-4.5175257	scenario	-0.09634532
-4.5175257	entrenchment	-0.09634532
-4.5175257	brake	-0.09634532
-4.19003	aims	-0.09634532
-4.5175257	satisfy	-0.09634532
-3.256016	needs	-0.25519466
-4.5175257	envisages	-0.09634532
-3.7570748	convergence	-0.15557675
-4.19003	living	-0.15557675
-4.5175257	highest	-0.09634532
-4.5175257	denominator	-0.09634532
-4.5175257	extending	-0.09634532
-4.5175257	scope	-0.09634532
-4.5175257	redistribution	-0.09634532
-4.5175257	instruments	-0.09634532
-4.5175257	proposing	-0.09634532
-4.5175257	unified	-0.09634532
-3.6005259	protection	-0.13492224
-4.5175257	systems	-0.09634532
-4.5175257	hours	-0.09634532
-4.5175257	bound	-0.09634532
-4.19003	reluctantly	-0.09634532
-4.5175257	vague	-0.09634532
-4.5175257	re-establishes	-0.09634532
-4.19003	sphere	-0.09634532
-4.19003	steps	-0.09634532
-4.5175257	persuades	-0.09634532
-4.0042577	coming	-0.09634532
-4.19003	faced	-0.22418176
-4.19003	globalisation	-0.09634532
-4.5175257	eastward	-0.09634532
-4.5175257	detailed	-0.09634532
-4.5175257	revitalise	-0.09634532
-4.5175257	individually	-0.09634532
-3.7570748	optimum	-0.09634532
-3.6005259	resources	-0.13492224
-4.5175257	capacities	-0.09634532
-4.19003	intentions	-0.09634532
-4.5175257	clearer	-0.09634532
-4.5175257	firm	-0.09634532
-4.5175257	monitoring	-0.09634532
-4.5175257	utilising	-0.09634532
-3.7570748	involvement	-0.15557675
-4.0042577	operators	-0.17726286
-4.0042577	failure	-0.09634532
-4.5175257	territorial	-0.09634532
-4.5175257	pacts	-0.09634532
-4.5175257	methods	-0.09634532
-4.5175257	combating	-0.09634532
-4.19003	women	-0.22418176
-4.5175257	tonight	-0.09634532
-4.5175257	prime	-0.09634532
-4.19003	careful	-0.09634532
-4.0042577	produce	-0.09634532
-4.5175257	grandiose-sounding	-0.09634532
-4.5175257	ideas	-0.09634532
-4.0042577	directly	-0.09634532
-4.5175257	well-intentioned	-0.09634532
-4.0042577	clarity	-0.09634532
-3.6005259	purpose	-0.09634535
-4.5175257	operability	-0.09634532
-4.5175257	additions	-0.09634532
-4.0042577	text	-0.09634535
-4.0042577	away	-0.17726286
-4.19003	whom	-0.09634532
-4.5175257	guide	-0.09634532
-4.0042577	thinking	-0.09634532
-4.5175257	sums	-0.09634532
-4.0042577	money	-0.09634532
-4.0042577	whose	-0.09634532
-4.5175257	outcomes	-0.09634532
-4.0042577	necessarily	-0.15557675
-4.5175257	unclear	-0.09634532
-4.5175257	mid-way	-0.09634532
-3.39497	effective	-0.14858222
-4.5175257	terminating	-0.09634532
-4.0042577	successful	-0.09634532
-3.7570748	change	-0.12919702
-4.19003	method	-0.09634532
-4.5175257	disbursed	-0.09634532
-4.19003	reality	-0.09634532
-4.19003	equation	-0.22418176
-4.19003	funded	-0.09634532
-4.5175257	shifted	-0.09634532
-4.5175257	small-scale	-0.09634532
-4.5175257	revenue-based	-0.09634532
-4.19003	benefits	-0.09634532
-4.5175257	meticulous	-0.09634532
-4.5175257	substantive	-0.09634532
-4.19003	piece	-0.22418176
-4.0042577	doubt	-0.17726286
-4.5175257	tools	-0.09634532
-4.5175257	tackling	-0.09634532
-4.19003	reducing	-0.09634532
-3.3199592	levels	-0.19144802
-4.5175257	disparity	-0.09634532
-4.0042577	high	-0.09634532
-4.5175257	unacceptably	-0.09634532
-4.5175257	regards	-0.09634535
-4.5175257	thought-out	-0.09634532
-4.5175257	sensible	-0.09634532
-3.7570748	life	-0.14306657
-4.5175257	closing	-0.09634532
-4.5175257	adapt	-0.09634532
-4.5175257	changing	-0.09634532
-4.19003	circumstances	-0.09634532
-4.5175257	thereby	-0.09634532
-3.7570748	respond	-0.23055105
-4.19003	best	-0.09634532
-4.5175257	observations	-0.09634532
-4.5175257	actual	-0.09634532
-3.4856982	direction	-0.18106298
-4.19003	ease	-0.22418176
-3.6005259	problem	-0.14306657
-4.5175257	mass	-0.09634532
-4.5175257	aggravates	-0.09634532
-4.19003	agricultural	-0.09634532
-4.5175257	irreparably	-0.09634532
-4.5175257	damaged	-0.09634532
-4.5175257	dramatic	-0.09634532
-4.5175257	farmers	-0.09634532
-4.0042577	becoming	-0.09634532
-4.5175257	marked	-0.09634532
-4.5175257	examine	-0.09634532
-4.19003	data	-0.09634532
-3.7570748	sixth	-0.200187
-3.7570748	periodic	-0.41135103
-4.5175257	decade	-0.09634532
-4.5175257	witnessed	-0.09634532
-4.5175257	proliferation	-0.09634532
-4.19003	facing	-0.09634532
-4.5175257	shortcomings	-0.09634532
-4.5175257	infrastrucutres	-0.09634532
-4.19003	structure	-0.09634532
-4.5175257	resulted	-0.09634532
-4.5175257	gradual	-0.09634532
-4.5175257	depopulation	-0.09634532
-4.0042577	section	-0.17726286
-4.5175257	strongly	-0.09634532
-4.5175257	condemned	-0.09634532
-4.5175257	anti	-0.09634532
-4.5175257	grass-roots	-0.09634532
-4.5175257	heading	-0.09634532
-4.19003	signs	-0.09634532
-3.6005259	things	-0.14306657
-3.7570748	words	-0.09634532
-3.7570748	taking	-0.14306657
-4.19003	seriously	-0.09634532
-4.0042577	bring	-0.14306657
-4.5175257	outermost	-0.09634532
-4.19003	ambition	-0.09634532
-4.5175257	azores	-0.09634532
-4.5175257	madeira	-0.09634532
-4.5175257	enlighten	-0.09634532
-4.5175257	awaited	-0.09634532
-4.19003	willing	-0.22418176
-4.19003	suggestions	-0.09634532
-4.5175257	contrary	-0.09634532
-4.19003	claim	-0.09634532
-4.5175257	reminiscent	-0.09634532
-3.39497	extent	-0.24800979
-4.5175257	catalogue	-0.09634532
-3.2002904	measures	-0.11907794
-3.7570748	true	-0.13492224
-4.19003	10	-0.09634532
-4.5175257	deliberations	-0.09634532
-3.7570748	gdp	-0.14306657
-4.19003	experiencing	-0.09634532
-3.6005259	differences	-0.14306657
-4.5175257	read	-0.09634532
-4.5175257	treat	-0.09634532
-4.19003	greatest	-0.09634532
-4.5175257	allocation	-0.09634532
-4.5175257	reserves	-0.09634532
-4.5175257	fundamentally	-0.09634532
-4.19003	strengthened	-0.09634532
-4.5175257	disregards	-0.09634532
-4.5175257	standard	-0.09634532
-4.5175257	neither	-0.09634532
-4.5175257	reliable	-0.09634532
-4.5175257	viable	-0.09634532
-4.5175257	listening	-0.09634532
-4.5175257	occasional	-0.09634532
-4.0042577	criticisms	-0.09634532
-4.19003	speeches	-0.09634532
-4.19003	return	-0.09634532
-4.5175257	mentioning	-0.09634532
-4.19003	principal	-0.09634532
-4.5175257	putting	-0.09634532
-4.0042577	based	-0.28641233
-4.5175257	utilisation	-0.09634532
-4.19003	referring	-0.09634532
-4.5175257	seppänen	-0.09634532
-4.19003	link	-0.09634532
-4.5175257	focused	-0.09634532
-4.5175257	passionately	-0.09634532
-4.5175257	understood	-0.09634532
-4.19003	perhaps	-0.09634532
-4.5175257	ribeiro	-0.09634532
-4.5175257	e	-0.09634532
-4.5175257	castro	-0.09634532
-4.5175257	wrote	-0.09634532
-4.5175257	extension	-0.09634532
-4.5175257	weeks	-0.09634532
-4.5175257	publishing	-0.09634532
-4.19003	anticipated	-0.09634532
-4.5175257	belatedly	-0.09634532
-4.19003	memorandums	-0.09634532
-4.5175257	excuse	-0.09634532
-4.19003	thorough	-0.09634532
-4.0042577	economies	-0.09634532
-4.5175257	expressed	-0.09634532
-4.5175257	page	-0.09634532
-4.19003	5	-0.09634532
-4.5175257	thematic	-0.09634532
-4.5175257	extents	-0.09634532
-4.5175257	situations	-0.09634532
-4.19003	consultation	-0.09634532
-3.6005259	due	-0.200187
-4.5175257	elections	-0.09634532
-4.5175257	undertake	-0.09634532
-4.5175257	definitively	-0.09634532
-4.19003	context	-0.09634532
-4.5175257	precise	-0.09634532
-4.5175257	ones	-0.09634532
-4.19003	drawing	-0.09634532
-4.5175257	reiterated	-0.09634532
-4.5175257	recommendations	-0.09634532
-4.5175257	spring	-0.09634532
-4.5175257	stipulates	-0.09634532
-4.5175257	quoted	-0.09634532
-4.5175257	quotation	-0.09634532
-4.5175257	marks	-0.09634532
-4.5175257	moreover	-0.09634532
-4.5175257	substitute	-0.09634532
-4.5175257	ex	-0.09634532
-4.5175257	ante	-0.09634532
-4.5175257	assessments	-0.09634532
-4.5175257	specify	-0.09634532
-4.19003	effectiveness	-0.22418176
-4.5175257	pointing	-0.09634532
-3.6005259	find	-0.09634532
-4.5175257	opposite	-0.09634532
-4.5175257	confirm	-0.09634532
-4.5175257	attaches	-0.09634532
-4.5175257	ministers	-0.09634532
-4.5175257	tampere	-0.09634532
-4.5175257	stressed	-0.09634532
-4.5175257	diversification	-0.09634532
-3.7570748	simply	-0.09634532
-4.5175257	eaggf	-0.09634532
-4.5175257	vigilance	-0.09634532
-4.5175257	reserve	-0.09634532
-4.19003	permit	-0.09634532
-4.5175257	sir	-0.09634532
-4.5175257	matches	-0.09634532
-4.5175257	recommendation	-0.09634532
-4.5175257	combat	-0.09634532
-4.5175257	oil	-0.09634532
-4.5175257	spillage	-0.09634532
-4.5175257	zoning	-0.09634532
-4.19003	france	-0.09634532
-4.5175257	luxembourg	-0.09634532
-4.5175257	paying	-0.09634532
-4.5175257	visit	-0.09634532
-4.19003	departments	-0.09634532
-4.5175257	severely	-0.09634532
-4.5175257	disabled	-0.09634532
-4.5175257	reinforce	-0.09634532
-4.19003	concept	-0.09634532
-4.0042577	practice	-0.09634532
-4.5175257	1994-1999	-0.09634532
-4.5175257	constitutes	-0.09634532
-4.5175257	milestone	-0.09634532
-4.5175257	highlights	-0.09634532
-4.5175257	fifth	-0.09634532
-4.19003	average	-0.09634532
-4.5175257	offers	-0.09634532
-4.5175257	over-simplified	-0.09634532
-4.5175257	relativises	-0.09634532
-4.19003	observation	-0.09634532
-4.5175257	refers	-0.09634532
-4.0042577	mean	-0.17726286
-4.5175257	overseas	-0.09634532
-4.5175257	presents	-0.09634532
-4.19003	arguments	-0.09634532
-4.5175257	viewpoint	-0.09634532
-4.5175257	balanced	-0.09634532
-4.19003	outlines	-0.09634532
-4.5175257	reluctant	-0.09634532
-4.5175257	explicit	-0.09634532
-4.0042577	fashion	-0.09634532
-4.5175257	demonstrates	-0.09634532
-4.5175257	promote	-0.09634532
-4.5175257	polycentric	-0.09634532
-4.5175257	initiated	-0.09634532
-4.5175257	sec	-0.09634532
-4.19003	valuable	-0.09634532
-4.5175257	summarise	-0.09634532
-4.19003	negative	-0.09634532
-4.5175257	advances	-0.09634532
-4.19003	throughout	-0.22418176
-4.19003	decisive	-0.09634532
-4.0042577	factor	-0.17726286
-4.19003	effort	-0.09634532
-4.19003	financing	-0.09634532
-4.19003	closely	-0.09634532
-4.5175257	commandment	-0.09634532
-4.5175257	fellow	-0.09634532
-4.5175257	approve	-0.09634532
-4.0042577	note	-0.17726286
-4.19003	debating	-0.09634532
-4.5175257	periodical	-0.09634532
-4.19003	shows	-0.22418176
-4.5175257	uneven	-0.09634532
-3.6005259	efforts	-0.09634535
-4.19003	continuing	-0.09634532
-4.5175257	strongest	-0.09634532
-4.5175257	centres	-0.09634532
-4.19003	grow	-0.09634532
-4.5175257	faster	-0.09634532
-4.5175257	whereas	-0.09634532
-4.5175257	southern	-0.09634532
-4.19003	developing	-0.09634532
-4.5175257	slowly	-0.09634532
-4.5175257	producing	-0.09634532
-4.5175257	desired	-0.09634532
-4.5175257	notice	-0.09634532
-4.5175257	interregional	-0.09634532
-4.5175257	distances	-0.09634532
-4.5175257	climates	-0.09634532
-4.5175257	sparse	-0.09634532
-4.5175257	populations	-0.09634532
-4.5175257	austere	-0.09634532
-4.5175257	global	-0.09634532
-4.19003	developed	-0.09634532
-3.6005259	remain	-0.09634535
-4.5175257	discover	-0.09634532
-3.6005259	effects	-0.17726286
-3.7570748	bear	-0.23055105
-4.5175257	breach	-0.09634532
-4.19003	via	-0.22418176
-4.5175257	chipped	-0.09634532
-4.5175257	targeted	-0.09634532
-4.5175257	uncontrolled	-0.09634532
-4.5175257	migration	-0.09634532
-4.0042577	connection	-0.09634532
-4.5175257	weight	-0.09634532
-4.5175257	employers	-0.09634532
-4.19003	forces	-0.09634532
-4.19003	technology	-0.09634532
-4.19003	know-how	-0.22418176
-4.19003	adopting	-0.09634532
-4.5175257	interpret	-0.09634532
-3.7570748	significant	-0.09634532
-4.5175257	inhabitants	-0.09634532
-4.5175257	berend	-0.09634532
-4.5175257	line	-0.09634532
-4.5175257	determined	-0.09634532
-4.5175257	inasmuch	-0.09634532
-4.0042577	brought	-0.09634532
-4.5175257	fore	-0.09634532
-4.5175257	overarching	-0.09634532
-4.19003	boosting	-0.09634532
-4.5175257	equality	-0.09634532
-4.5175257	sustainability	-0.09634532
-4.19003	attitude	-0.09634532
-4.5175257	appears	-0.09634532
-4.5175257	unjustified	-0.09634532
-4.5175257	seventh	-0.09634532
-4.5175257	parallel	-0.09634532
-4.5175257	temporary	-0.09634532
-4.0042577	supporting	-0.09634532
-4.5175257	compensate	-0.09634532
-4.19003	envisaged	-0.09634532
-4.5175257	self-supporting	-0.09634532
-4.5175257	upturn	-0.09634532
-4.19003	knowledge	-0.09634532
-4.5175257	substantiates	-0.09634532
-4.19003	3	-0.09634532
-4.19003	create	-0.09634532
-4.5175257	concentrating	-0.09634532
-4.19003	else	-0.09634532
-3.6005259	supply	-0.32746106
-4.19003	demand-orientated	-0.22418176
-4.19003	pursue	-0.09634532
-4.5175257	invest	-0.09634532
-4.5175257	expansion	-0.09634532
-4.5175257	lesser	-0.09634532
-4.5175257	rationalisation	-0.09634532
-4.5175257	imperative	-0.09634532
-4.19003	chance	-0.09634532
-4.5175257	varies	-0.09634532
-4.5175257	enormous	-0.09634532
-4.5175257	accompanying	-0.09634532
-4.5175257	accomplished	-0.09634532
-4.5175257	compliments	-0.09634532
-4.19003	goal	-0.09634532
-4.5175257	stimulating	-0.09634532
-4.5175257	investments	-0.09634532
-4.5175257	endeavouring	-0.09634532
-4.5175257	capita	-0.09634532
-4.5175257	hesitant	-0.09634532
-4.5175257	incentives	-0.09634532
-4.5175257	satisfying	-0.09634532
-4.5175257	couple	-0.09634532
-4.5175257	minimal	-0.09634532
-4.5175257	reservation	-0.09634532
-4.5175257	sometimes	-0.09634532
-4.5175257	pronounced	-0.09634532
-4.19003	raises	-0.09634532
-4.5175257	worthwhile	-0.09634532
-4.5175257	remit	-0.09634532
-4.5175257	allowing	-0.09634532
-4.5175257	tailor-made	-0.09634532
-4.5175257	tying	-0.09634532
-4.5175257	ultimate	-0.09634532
-4.5175257	delegating	-0.09634532
-4.0042577	following	-0.09634532
-4.5175257	probably	-0.09634532
-4.5175257	meaningful	-0.09634532
-4.5175257	anyway	-0.09634532
-4.19003	avoid	-0.09634532
-4.19003	later	-0.09634532
-4.19003	planned	-0.09634532
-4.5175257	accession	-0.09634532
-4.5175257	foreseeable	-0.09634532
-4.5175257	urgency	-0.09634532
-4.5175257	submit	-0.09634532
-4.5175257	sooner	-0.09634532
-4.5175257	scrutiny	-0.09634532
-4.5175257	escape	-0.09634532
-4.5175257	fulfil	-0.09634532
-4.19003	whilst	-0.22418176
-4.5175257	decreased	-0.09634532
-4.19003	equally	-0.09634532
-4.5175257	barely	-0.09634532
-4.5175257	fell	-0.09634532
-4.19003	wonder	-0.09634532
-4.19003	employed	-0.09634532
-4.5175257	accumulation	-0.09634532
-4.5175257	reforms	-0.09634532
-4.5175257	competition-friendly	-0.09634532
-4.19003	taxation	-0.09634532
-4.5175257	cornerstones	-0.09634532
-4.5175257	accused	-0.09634532
-4.5175257	pursuing	-0.09634532
-4.5175257	cost-intensive	-0.09634532
-4.5175257	analysed	-0.09634532
-4.0042577	rate	-0.17726286
-4.5175257	thanks	-0.09634532
-4.5175257	handling	-0.09634532
-4.5175257	decide	-0.09634532
-4.19003	judge	-0.09634532
-4.5175257	everyday	-0.09634532
-4.5175257	credibility	-0.09634532
-4.5175257	conceded	-0.09634532
-4.5175257	aided	-0.09634532
-4.5175257	magnificently	-0.09634532
-4.5175257	portugal	-0.09634532
-4.19003	greece	-0.09634532
-4.5175257	drove	-0.09634532
-4.5175257	twenty-five	-0.09634532
-4.5175257	chapeau	-0.09634532
-4.5175257	hat	-0.09634532
-4.19003	gesture	-0.22418176
-4.5175257	react	-0.09634532
-4.5175257	voting	-0.09634532
-4.19003	feet	-0.09634532
-4.5175257	earn	-0.09634532
-4.5175257	crust	-0.09634532
-4.5175257	schools	-0.09634532
-4.5175257	hospitals	-0.09634532
-4.5175257	costly	-0.09634532
-4.5175257	born	-0.09634532
-4.5175257	moral	-0.09634532
-4.19003	obligation	-0.09634532
-4.5175257	lies	-0.09634532
-4.5175257	encouraging	-0.09634532
-4.19003	entrepreneurship	-0.09634532
-4.0042577	ownership	-0.09634532
-4.19003	person	-0.09634532
-4.0042577	wants	-0.17726286
-4.5175257	employee	-0.09634532
-4.5175257	owner	-0.09634532
-4.5175257	official	-0.09634532
-4.19003	fair	-0.09634532
-4.5175257	modest	-0.09634532
-4.5175257	background	-0.09634532
-4.5175257	easier	-0.09634532
-4.5175257	children	-0.09634532
-4.0042577	learn	-0.09634532
-4.19003	lesson	-0.09634532
-4.5175257	america	-0.09634532
-4.5175257	indication	-0.09634532
-4.5175257	ability	-0.09634532
-4.5175257	envy	-0.09634532
-4.5175257	limited	-0.09634532
-4.5175257	straight	-0.09634532
-4.5175257	fruits	-0.09634532
-4.19003	distributed	-0.09634532
-4.5175257	equitably	-0.09634532
-4.19003	hit	-0.09634532
-4.5175257	catastrophic	-0.09634532
-4.5175257	rates	-0.09634532
-4.5175257	reunion	-0.09634532
-4.5175257	37	-0.09634532
-4.19003	created	-0.09634532
-4.5175257	remoteness	-0.09634532
-4.5175257	insularity	-0.09634532
-4.5175257	personality	-0.09634532
-4.5175257	exceptional	-0.09634532
-4.5175257	299	-0.09634532
-4.19003	expected	-0.09634532
-4.19003	ready	-0.09634532
-4.5175257	delayed	-0.09634532
-4.19003	initial	-0.09634532
-4.5175257	fill	-0.09634532
-4.19003	optimism	-0.09634532
-4.5175257	appeal	-0.09634532
-4.5175257	formally	-0.09634532
-4.5175257	defending	-0.09634532
-4.5175257	traditional	-0.09634532
-4.0042577	products	-0.09634532
-4.5175257	characterised	-0.09634532
-4.5175257	daring	-0.09634532
-4.5175257	feared	-0.09634532
-4.19003	undertaken	-0.09634532
-4.5175257	size	-0.09634532
-4.5175257	amounts	-0.09634532
-4.5175257	committed	-0.09634532
-4.5175257	8.25	-0.09634532
-4.5175257	adoption	-0.09634532
-3.7570748	yesterday	-0.09634532
-4.5175257	invitation	-0.09634532
-4.5175257	afternoon	-0.09634532
-4.5175257	11	-0.09634532
-4.5175257	respectfully	-0.09634532
-4.0042577	basic	-0.09634532
-4.5175257	set-piece	-0.09634532
-4.5175257	debates	-0.09634532
-4.5175257	scheduled	-0.09634532
-4.5175257	lines	-0.09634532
-4.5175257	mutual	-0.09634532
-4.5175257	expectations	-0.09634532
-4.5175257	unfortunate	-0.09634532
-4.5175257	institution	-0.09634532
-4.5175257	fracture	-0.09634532
-4.5175257	institutional	-0.09634532
-4.19003	relationships	-0.09634532
-4.5175257	exercised	-0.09634532
-4.5175257	commendable	-0.09634532
-4.5175257	self-restraint	-0.09634532
-4.5175257	commented	-0.09634532
-4.5175257	publicly	-0.09634532
-4.5175257	deep	-0.09634532
-4.5175257	lessons	-0.09634532
-4.5175257	founded	-0.09634532
-4.5175257	misapprehension	-0.09634532
-4.0042577	bad	-0.09634532
-4.5175257	faith	-0.09634532
-4.5175257	dramatised	-0.09634532
-4.5175257	bourlanges	-0.09634532
-4.5175257	budgets	-0.09634532
-4.5175257	night	-0.09634532
-4.5175257	wynn	-0.09634532
-4.5175257	hereby	-0.09634532
-4.5175257	presume	-0.09634532
-4.5175257	talking	-0.09634532
-4.19003	drains	-0.09634532
-4.5175257	smell	-0.09634532
-4.5175257	tower	-0.09634532
-4.19003	looked	-0.22418176
-4.19003	wrong	-0.09634532
-4.5175257	drag	-0.09634532
-4.5175257	endlessly	-0.09634532
-4.5175257	ahern	-0.09634532
-4.5175257	ventilators	-0.09634532
-4.19003	approved	-0.09634532
-4.19003	joint	-0.22418176
-4.5175257	a5-0078/1999	-0.09634532
-4.5175257	rapkay	-0.09634532
-4.19003	xxviiith	-0.22418176
-4.5175257	-lsb-	-0.09634532
-4.5175257	sek	-0.09634532
-4.5175257	743	-0.09634532
-4.5175257	c5-0121/1999	-0.09634532
-4.5175257	1999/2124	-0.09634532
-4.5175257	cos	-0.09634532
-4.5175257	-rsb-	-0.09634532
-4.5175257	engaged	-0.09634532
-4.19003	highly	-0.09634532
-4.19003	controversial	-0.09634532
-3.39497	modernisation	-0.09634528
-3.3199592	monopolies	-0.17915878
-4.0042577	von	-0.17726286
-4.5175257	wogau	-0.09634532
-4.0042577	share	-0.09634532
-3.6005259	white	-0.508261
-4.19003	paper	-0.121678844
-4.5175257	viability	-0.09634532
-4.5175257	documents	-0.09634532
-4.5175257	learns	-0.09634532
-4.19003	pursued	-0.09634532
-4.5175257	completed	-0.09634532
-4.5175257	taught	-0.09634532
-4.5175257	juncture	-0.09634532
-4.19003	authority	-0.09634532
-4.5175257	logically	-0.09634532
-4.5175257	consistent	-0.09634532
-4.5175257	served	-0.09634532
-4.0042577	freedom	-0.17726286
-4.5175257	delight	-0.09634532
-3.7570748	enterprises	-0.09634532
-4.5175257	posed	-0.09634532
-4.5175257	deepening	-0.09634532
-4.0042577	technological	-0.09634532
-4.19003	acceptance	-0.09634532
-4.5175257	foundation	-0.09634532
-4.5175257	food	-0.09634532
-4.5175257	accountability	-0.09634532
-4.19003	belong	-0.22418176
-4.5175257	competences	-0.09634532
-4.5175257	chosen	-0.09634532
-4.5175257	strengthening	-0.09634532
-4.5175257	intensifying	-0.09634532
-4.19003	scandalous	-0.09634532
-4.5175257	intergovernmental	-0.09634532
-4.0042577	codecision	-0.09634532
-4.19003	expect	-0.22418176
-4.5175257	exploit	-0.09634532
-4.5175257	doubtful	-0.09634532
-4.5175257	quo	-0.09634532
-4.5175257	pro-active	-0.09634532
-4.0042577	instrument	-0.09634532
-4.19003	ideal	-0.09634532
-4.0042577	solutions	-0.09634532
-4.19003	tenets	-0.22418176
-4.5175257	theory	-0.09634532
-4.5175257	failing	-0.09634532
-4.5175257	respects	-0.09634532
-4.5175257	anyone	-0.09634532
-4.5175257	ideologue	-0.09634532
-3.6005259	demand	-0.13492224
-4.19003	efficiency	-0.09634532
-4.5175257	accord	-0.09634532
-4.19003	framework	-0.22418176
-4.5175257	indispensable	-0.09634532
-4.5175257	preventing	-0.09634532
-4.19003	abuses	-0.09634532
-4.5175257	serves	-0.09634532
-4.5175257	prevent	-0.09634532
-4.5175257	socially	-0.09634532
-3.7570748	legitimate	-0.09634532
-4.5175257	goals	-0.09634532
-4.5175257	isolation	-0.09634532
-4.19003	restrictions	-0.09634532
-4.19003	permissible	-0.09634532
-4.5175257	purposes	-0.09634532
-3.6005259	lead	-0.508261
-4.5175257	unacceptable	-0.09634532
-4.5175257	distortion	-0.09634532
-4.19003	mergers	-0.09634532
-4.5175257	comprehensible	-0.09634532
-4.5175257	pillory	-0.09634532
-4.5175257	distinctions	-0.09634532
-4.5175257	assess	-0.09634532
-4.5175257	above-mentioned	-0.09634532
-4.5175257	descriptive	-0.09634532
-4.5175257	detailing	-0.09634532
-4.5175257	manufacturing	-0.09634532
-3.7570748	sectors	-0.1954268
-4.5175257	typologies	-0.09634532
-4.5175257	plainly	-0.09634532
-4.5175257	roughly	-0.09634532
-4.5175257	stable	-0.09634532
-4.5175257	approximately	-0.09634532
-4.5175257	1.2	-0.09634532
-4.5175257	equivalent	-0.09634532
-4.5175257	coincidentally	-0.09634532
-4.5175257	budget	-0.09634532
-4.5175257	measured	-0.09634532
-4.5175257	percentage	-0.09634532
-4.5175257	wage	-0.09634532
-4.5175257	earner	-0.09634532
-4.5175257	assimilated	-0.09634532
-4.5175257	top	-0.09634532
-4.5175257	list	-0.09634532
-4.5175257	collate	-0.09634532
-4.19003	analyse	-0.09634532
-4.5175257	championed	-0.09634532
-4.5175257	longstanding	-0.09634532
-4.19003	register	-0.09634532
-4.5175257	accessible	-0.09634532
-4.5175257	internet	-0.09634532
-4.5175257	insofar	-0.09634532
-4.5175257	studies	-0.09634532
-4.5175257	exist	-0.09634532
-4.5175257	publish	-0.09634532
-4.5175257	openly	-0.09634532
-4.5175257	competitivity	-0.09634532
-4.5175257	highlighting	-0.09634532
-4.5175257	reimbursement	-0.09634532
-4.5175257	found	-0.09634532
-4.19003	illegal	-0.09634532
-4.19003	league	-0.09634532
-4.5175257	table	-0.09634532
-4.5175257	seven	-0.09634532
-4.5175257	retabled	-0.09634532
-4.5175257	expression	-0.09634532
-4.5175257	appropriateness	-0.09634532
-4.19003	inadequacies	-0.09634532
-4.5175257	investment	-0.09634532
-4.5175257	failures	-0.09634532
-4.0042577	capacity	-0.09634532
-4.5175257	stressing	-0.09634532
-4.5175257	involves	-0.09634532
-4.5175257	pre-accession	-0.09634532
-4.5175257	argues	-0.09634532
-3.7570748	steel	-0.26044065
-4.5175257	assessed	-0.09634532
-4.5175257	27	-0.09634532
-4.5175257	ecsc	-0.09634532
-4.5175257	expire	-0.09634532
-4.5175257	shortly	-0.09634532
-4.5175257	managed	-0.09634532
-4.5175257	feature	-0.09634532
-4.19003	applying	-0.09634532
-4.5175257	88	-0.09634532
-4.19003	forms	-0.09634532
-4.19003	ban	-0.22418176
-4.5175257	87	-0.09634532
-4.19003	applies	-0.22418176
-4.5175257	iron	-0.09634532
-4.5175257	irreconcilable	-0.09634532
-4.5175257	exemptions	-0.09634532
-4.19003	permitted	-0.09634532
-4.5175257	defined	-0.09634532
-4.19003	supervise	-0.09634532
-4.5175257	largest	-0.09634532
-4.5175257	totalling	-0.09634532
-4.19003	eur	-0.09634532
-4.5175257	540	-0.09634532
-4.19003	million	-0.09634532
-4.5175257	preussag	-0.09634532
-4.5175257	warning	-0.09634532
-4.5175257	pertaining	-0.09634532
-4.5175257	1996	-0.09634532
-4.5175257	stipulate	-0.09634532
-4.5175257	awarded	-0.09634532
-4.5175257	precisely-defined	-0.09634532
-4.0042577	involving	-0.09634532
-4.5175257	security	-0.09634532
-4.5175257	closure	-0.09634532
-4.5175257	steelworks	-0.09634532
-4.5175257	non-competitive	-0.09634532
-4.5175257	cease	-0.09634532
-4.5175257	trading	-0.09634532
-4.5175257	altogether	-0.09634532
-4.5175257	provision	-0.09634532
-4.5175257	obviously	-0.09634532
-4.19003	fully	-0.09634532
-4.5175257	waste	-0.09634532
-4.5175257	succeed	-0.09634532
-4.5175257	expired	-0.09634532
-4.5175257	watering-down	-0.09634532
-4.5175257	underlying	-0.09634532
-4.5175257	unimpeded	-0.09634532
-4.5175257	subsidy	-0.09634532
-4.5175257	disadvantage	-0.09634532
-4.5175257	regardless	-0.09634532
-4.5175257	undergone	-0.09634532
-4.5175257	consolidation	-0.09634532
-4.5175257	believes	-0.09634532
-4.5175257	claims	-0.09634532
-4.5175257	unequal	-0.09634532
-4.19003	follow-up	-0.22418176
-4.5175257	dragged	-0.09634532
-4.5175257	impression	-0.09634532
-4.19003	expires	-0.22418176
-4.5175257	inconvenience	-0.09634532
-4.0042577	supervision	-0.17726286
-4.5175257	regulated	-0.09634532
-4.5175257	94	-0.09634532
-4.5175257	validity	-0.09634532
-4.5175257	enforce	-0.09634532
-4.5175257	strict	-0.09634532
-4.5175257	covered	-0.09634532
-4.5175257	applicable	-0.09634532
-4.5175257	compromising	-0.09634532
-4.5175257	disturbing	-0.09634532
-3.7570748	markets	-0.15557675
-4.19003	barriers	-0.22418176
-4.5175257	impeding	-0.09634532
-4.19003	alike	-0.22418176
-4.5175257	promise	-0.09634532
-4.0042577	distort	-0.17726286
-4.5175257	allocations	-0.09634532
-4.5175257	successive	-0.09634532
-4.5175257	phasing	-0.09634532
-4.5175257	opened	-0.09634532
-4.5175257	turned	-0.09634532
-4.5175257	phased	-0.09634532
-4.5175257	newly	-0.09634532
-4.19003	organisations	-0.09634532
-4.5175257	welfare	-0.09634532
-4.5175257	spheres	-0.09634532
-4.5175257	care	-0.09634532
-4.19003	replaced	-0.09634532
-4.0042577	structures	-0.09634532
-4.5175257	modernised	-0.09634532
-4.5175257	becomes	-0.09634532
-4.0042577	consumers	-0.17726286
-4.5175257	pushes	-0.09634532
-4.0042577	prices	-0.09634532
-4.5175257	price	-0.09634532
-3.7570748	consumer	-0.1954268
-4.5175257	systematic	-0.09634532
-4.5175257	survey	-0.09634532
-4.5175257	dismantled	-0.09634532
-4.5175257	model	-0.09634532
-4.5175257	tested	-0.09634532
-4.19003	ought	-0.09634532
-4.5175257	nationalisation	-0.09634532
-4.5175257	pure	-0.09634532
-4.19003	simple	-0.09634532
-4.19003	undermine	-0.22418176
-4.5175257	anchored	-0.09634532
-4.5175257	solved	-0.09634532
-4.5175257	inter-institutional	-0.09634532
-4.5175257	congress	-0.09634532
-4.5175257	unbiased	-0.09634532
-4.5175257	interests	-0.09634532
-4.19003	radical	-0.22418176
-4.5175257	wrongly	-0.09634532
-4.5175257	losses	-0.09634532
-4.5175257	interfere	-0.09634532
-4.5175257	front	-0.09634532
-4.5175257	straighten	-0.09634532
-4.5175257	misunderstandings	-0.09634532
-4.5175257	constituency	-0.09634532
-4.5175257	stockholm	-0.09634532
-4.0042577	examples	-0.09634532
-4.5175257	arisen	-0.09634532
-4.5175257	exposure	-0.09634532
-4.5175257	continuation	-0.09634532
-4.5175257	accorded	-0.09634532
-4.19003	maiden	-0.22418176
-4.5175257	langen	-0.09634532
-4.19003	jonckheer	-0.09634532
-4.5175257	story	-0.09634532
-4.5175257	telecommunications	-0.09634532
-4.5175257	demonstrable	-0.09634532
-4.5175257	lowering	-0.09634532
-4.5175257	arrived	-0.09634532
-4.5175257	containing	-0.09634532
-4.19003	dropping	-0.22418176
-4.5175257	notify	-0.09634532
-4.19003	retrodisplacement	-0.22418176
-4.5175257	costs	-0.09634532
-3.4856982	system	-0.1582847
-4.5175257	onus	-0.09634532
-4.0042577	individual	-0.09634532
-4.0042577	world	-0.09634528
-4.5175257	submitting	-0.09634532
-4.5175257	papers	-0.09634532
-4.5175257	unease	-0.09634532
-4.5175257	marker	-0.09634532
-4.0042577	culture	-0.17726286
-4.19003	bodies	-0.09634532
-4.5175257	decided	-0.09634532
-4.5175257	centrally	-0.09634532
-4.5175257	adaptation	-0.09634532
-4.5175257	certainty	-0.09634532
-4.5175257	recourse	-0.09634532
-4.5175257	ascertain	-0.09634532
-4.5175257	disciplined	-0.09634532
-4.5175257	holds	-0.09634532
-4.5175257	dear	-0.09634532
-4.5175257	vital	-0.09634532
-4.5175257	requires	-0.09634532
-4.5175257	weaken	-0.09634532
-4.5175257	cite	-0.09634532
-4.19003	savings	-0.09634532
-4.19003	banks	-0.09634532
-4.5175257	gütesiegel	-0.09634532
-4.5175257	region	-0.09634532
-4.5175257	marketing	-0.09634532
-4.5175257	destroyed	-0.09634532
-4.5175257	minimis	-0.09634532
-4.0042577	power	-0.15557675
-4.5175257	compete	-0.09634532
-4.5175257	talk	-0.09634532
-4.5175257	bank	-0.09634532
-4.5175257	hears	-0.09634532
-4.5175257	old	-0.09634532
-4.5175257	home	-0.09634532
-4.5175257	accommodated	-0.09634532
-4.5175257	customer	-0.09634532
-4.5175257	timely	-0.09634532
-4.5175257	evolved	-0.09634532
-4.5175257	stifle	-0.09634532
-4.5175257	apart	-0.09634532
-4.19003	customers	-0.22418176
-4.5175257	destructive	-0.09634532
-4.5175257	radwan	-0.09634532
-4.0042577	german	-0.09634532
-4.5175257	parliamentary-speak	-0.09634532
-4.5175257	inappropriately	-0.09634532
-4.5175257	robert	-0.09634532
-4.5175257	goebbels	-0.09634532
-4.5175257	bitter	-0.09634532
-4.5175257	controversy	-0.09634532
-4.5175257	slim	-0.09634532
-4.5175257	right-wing	-0.09634532
-4.19003	succeeded	-0.22418176
-4.5175257	removing	-0.09634532
-4.5175257	ultraliberal	-0.09634532
-4.5175257	supposedly	-0.09634532
-4.0042577	perfect	-0.09634532
-4.5175257	difference	-0.09634532
-4.5175257	adequately	-0.09634532
-4.5175257	eliminating	-0.09634532
-4.5175257	dawn	-0.09634532
-4.19003	forum	-0.09634532
-4.0042577	human	-0.09634532
-4.5175257	interchange	-0.09634532
-4.5175257	favours	-0.09634532
-4.5175257	immediate	-0.09634532
-4.5175257	profits	-0.09634532
-4.5175257	detriment	-0.09634532
-4.5175257	weakest	-0.09634532
-4.5175257	parties	-0.09634532
-4.5175257	function	-0.09634532
-4.5175257	offset	-0.09634532
-4.19003	define	-0.09634532
-4.19003	save	-0.09634532
-4.5175257	overall	-0.09634532
-4.5175257	aligned	-0.09634532
-4.5175257	track	-0.09634532
-4.5175257	hinders	-0.09634532
-4.5175257	mistake	-0.09634532
-4.5175257	eliminate	-0.09634532
-4.5175257	financed	-0.09634532
-4.5175257	american	-0.09634532
-4.5175257	army	-0.09634532
-4.5175257	wide	-0.09634532
-4.5175257	web	-0.09634532
-4.5175257	enabled	-0.09634532
-4.5175257	meteoric	-0.09634532
-4.5175257	cern	-0.09634532
-4.5175257	geneva	-0.09634532
-4.19003	holzmann	-0.09634532
-4.5175257	criticised	-0.09634532
-4.5175257	unjustifiable	-0.09634532
-4.5175257	constraint	-0.09634532
-4.19003	duisenberg	-0.09634532
-4.5175257	attempted	-0.09634532
-4.5175257	attribute	-0.09634532
-4.19003	weakness	-0.09634532
-4.5175257	euro	-0.09634532
-4.5175257	dollar	-0.09634532
-4.5175257	interventionism	-0.09634532
-4.5175257	hedge	-0.09634532
-4.5175257	ltcm	-0.09634532
-4.5175257	wishing	-0.09634532
-4.5175257	60	-0.09634532
-4.5175257	000	-0.09634532
-4.5175257	apparently	-0.09634532
-4.5175257	sin	-0.09634532
-4.5175257	saving	-0.09634532
-4.5175257	advocates	-0.09634532
-4.5175257	free	-0.09634532
-4.5175257	international	-0.09634532
-4.5175257	speculation	-0.09634532
-4.5175257	mexico	-0.09634532
-4.5175257	asia	-0.09634532
-4.5175257	brazil	-0.09634532
-4.5175257	labour	-0.09634532
-4.5175257	considered	-0.09634532
-4.5175257	reject	-0.09634532
-4.19003	liberals	-0.09634532
-4.5175257	naïve	-0.09634532
-4.5175257	regulate	-0.09634532
-4.19003	monti	-0.12919702
-4.5175257	outstanding	-0.09634532
-4.5175257	tidy	-0.09634532
-4.5175257	mess	-0.09634532
-4.5175257	grand	-0.09634532
-4.5175257	visions	-0.09634532
-4.5175257	wreak	-0.09634532
-4.5175257	havoc	-0.09634532
-4.5175257	boundless	-0.09634532
-4.5175257	receives	-0.09634532
-4.5175257	sawmills	-0.09634532
-4.19003	former	-0.09634532
-4.5175257	east	-0.09634532
-4.5175257	shipyards	-0.09634532
-4.5175257	danish	-0.09634532
-4.5175257	squeezed	-0.09634532
-4.5175257	poos	-0.09634532
-4.19003	show	-0.09634532
-4.5175257	restructure	-0.09634532
-4.19003	liberal	-0.09634532
-4.5175257	democrat	-0.09634532
-4.5175257	80	-0.09634532
-4.19003	unlawful	-0.09634532
-4.5175257	vigorously	-0.09634532
-4.5175257	repayment	-0.09634532
-4.5175257	meps	-0.09634532
-4.19003	scoreboard	-0.09634532
-4.5175257	showing	-0.09634532
-3.6005259	single	-0.18106298
-4.5175257	inspired	-0.09634532
-4.5175257	xviiith	-0.09634532
-4.19003	overriding	-0.09634532
-4.5175257	tighten	-0.09634532
-4.5175257	resolutely	-0.09634532
-4.5175257	solving	-0.09634532
-4.5175257	greens	-0.09634532
-4.5175257	try	-0.09634532
-4.19003	inter-company	-0.22418176
-4.19003	exceptions	-0.09634532
-4.5175257	absolute	-0.09634532
-4.5175257	voluntary	-0.09634532
-4.5175257	restraint	-0.09634532
-4.5175257	detrimental	-0.09634532
-4.5175257	ecological	-0.09634532
-4.5175257	expressly	-0.09634532
-4.5175257	justified	-0.09634532
-4.5175257	proposes	-0.09634532
-4.5175257	legitimacy	-0.09634532
-4.19003	recognise	-0.22418176
-4.5175257	investigation	-0.09634532
-4.5175257	features	-0.09634532
-4.19003	massive	-0.09634532
-4.5175257	acquisitions	-0.09634532
-4.5175257	huge	-0.09634532
-4.5175257	emergence	-0.09634532
-4.5175257	frighteningly	-0.09634532
-4.19003	multinational	-0.22418176
-4.5175257	controls	-0.09634532
-4.5175257	private-sector	-0.09634532
-4.5175257	shipbuilding	-0.09634532
-4.5175257	tremendously	-0.09634532
-4.5175257	lost	-0.09634532
-4.5175257	slice	-0.09634532
-4.19003	hundreds	-0.22418176
-4.5175257	redundant	-0.09634532
-4.5175257	concentration	-0.09634532
-4.5175257	speculative	-0.09634532
-4.5175257	entire	-0.09634532
-4.5175257	weakening	-0.09634532
-4.5175257	qualifying	-0.09634532
-4.5175257	procurement	-0.09634532
-4.5175257	contracts	-0.09634532
-4.5175257	public-sector	-0.09634532
-4.5175257	corporations	-0.09634532
-4.5175257	spiralling	-0.09634532
-4.5175257	loss	-0.09634532
-4.5175257	attack	-0.09634532
-4.19003	rights	-0.09634532
-4.19003	opposed	-0.22418176
-4.5175257	pivotal	-0.09634532
-4.19003	currency	-0.17726286
-4.5175257	deployed	-0.09634532
-4.5175257	birth	-0.09634532
-4.5175257	favourable	-0.09634532
-4.5175257	contributed	-0.09634532
-4.5175257	staunchly	-0.09634532
-4.5175257	bringing	-0.09634532
-4.5175257	advantages	-0.09634532
-4.5175257	shared	-0.09634532
-4.5175257	imprisons	-0.09634532
-4.5175257	artificial	-0.09634532
-4.5175257	straitjacket	-0.09634532
-4.5175257	imposed	-0.09634532
-4.5175257	peoples	-0.09634532
-4.5175257	forced	-0.09634532
-4.5175257	naturally	-0.09634532
-4.5175257	play	-0.09634532
-4.19003	modernising	-0.09634532
-4.19003	articles	-0.17726286
-4.5175257	85	-0.09634532
-4.5175257	86	-0.09634532
-4.19003	decentralised	-0.22418176
-3.39497	application	-0.21068802
-4.5175257	retaining	-0.09634532
-4.5175257	jurisdiction	-0.09634532
-4.5175257	obliging	-0.09634532
-4.5175257	jurisdictions	-0.09634532
-4.5175257	disputing	-0.09634532
-4.5175257	secular	-0.09634532
-4.5175257	arm	-0.09634532
-4.5175257	observance	-0.09634532
-4.5175257	abolition	-0.09634532
-4.19003	notification	-0.09634532
-4.19003	authorisation	-0.09634532
-4.5175257	puzzled	-0.09634532
-4.5175257	heed	-0.09634532
-4.5175257	eieck	-0.09634532
-4.5175257	doubtless	-0.09634532
-4.5175257	italian	-0.09634532
-4.5175257	bruno	-0.09634532
-4.5175257	leoni	-0.09634532
-4.5175257	warned	-0.09634532
-4.5175257	abnormal	-0.09634532
-4.5175257	anti-competition	-0.09634532
-4.5175257	interference	-0.09634532
-4.5175257	hindrances	-0.09634532
-4.5175257	choice	-0.09634532
-4.5175257	users	-0.09634532
-4.5175257	emu	-0.09634532
-4.5175257	forcing	-0.09634532
-4.5175257	curb	-0.09634532
-4.5175257	remained	-0.09634532
-4.19003	understandable	-0.09634532
-4.5175257	likely	-0.09634532
-4.5175257	adverse	-0.09634532
-4.5175257	management	-0.09634532
-4.5175257	non-viable	-0.09634532
-4.5175257	taxpayers	-0.09634532
-4.5175257	horizontal	-0.09634532
-4.5175257	hardly	-0.09634532
-4.5175257	deserve	-0.09634532
-4.5175257	phenomenon	-0.09634532
-4.5175257	vulnerable	-0.09634532
-4.5175257	hardest	-0.09634532
-4.5175257	sophisticated	-0.09634532
-4.19003	justice	-0.09634532
-4.5175257	plea	-0.09634532
-4.5175257	lighten	-0.09634532
-4.5175257	load	-0.09634532
-4.5175257	directorate-general	-0.09634532
-4.5175257	judiciary	-0.09634532
-4.5175257	pressure	-0.09634532
-4.5175257	decrease	-0.09634532
-4.5175257	judges	-0.09634532
-4.5175257	definition	-0.09634532
-4.5175257	reactions	-0.09634532
-4.5175257	authors	-0.09634532
-4.5175257	honour	-0.09634532
-4.5175257	reputation	-0.09634532
-4.5175257	predecessors	-0.09634532
-4.5175257	de-europeanise	-0.09634532
-4.5175257	re-nationalise	-0.09634532
-4.19003	defender	-0.22418176
-4.5175257	cultural	-0.09634532
-4.5175257	interpretative	-0.09634532
-4.5175257	statements	-0.09634532
-4.5175257	evocation	-0.09634532
-4.5175257	run	-0.09634532
-4.5175257	ending	-0.09634532
-4.5175257	echternach	-0.09634532
-4.5175257	procession	-0.09634532
-4.5175257	yourself	-0.09634532
-4.5175257	courses	-0.09634532
-4.5175257	outlined	-0.09634532
-4.5175257	hundred	-0.09634532
-4.5175257	onwards	-0.09634532
-4.5175257	worry	-0.09634532
-4.5175257	dossiers	-0.09634532
-4.5175257	filed	-0.09634532
-4.5175257	wayside	-0.09634532
-4.19003	orders	-0.09634532
-4.5175257	fate	-0.09634532
-4.5175257	lose	-0.09634532
-4.5175257	got	-0.09634532
-4.19003	vertical	-0.09634532
-4.5175257	exemption	-0.09634532
-4.19003	fourthly	-0.22418176
-4.5175257	informed	-0.09634532
-4.5175257	choose	-0.09634532
-4.5175257	invalidity	-0.09634532
-4.5175257	penalty	-0.09634532
-4.5175257	evident	-0.09634532
-4.5175257	infringements	-0.09634532
-4.19003	fifthly	-0.09634532
-4.5175257	pending	-0.09634532
-4.5175257	candidate	-0.09634532
-4.5175257	counties	-0.09634532
-4.5175257	game	-0.09634532
-4.5175257	first-class	-0.09634532
-4.5175257	sixthly	-0.09634532
-4.5175257	lastly	-0.09634532
-4.5175257	privilege	-0.09634532
-3.7570748	lawyers	-0.23055105
-4.5175257	implements	-0.09634532
-4.5175257	discrimination	-0.09634532
-4.5175257	in-house	-0.09634532
-4.19003	partners	-0.09634532
-4.5175257	sterile	-0.09634532
-4.5175257	fruit	-0.09634532
-4.19003	beginning	-0.09634532
-4.5175257	demonstrated	-0.09634532
-4.5175257	forty	-0.09634532
-4.5175257	exhaustion	-0.09634532
-4.5175257	came	-0.09634532
-4.5175257	procedural	-0.09634532
-4.19003	judicial	-0.09634532
-4.19003	approvals	-0.09634532
-4.5175257	specialised	-0.09634532
-4.5175257	academics	-0.09634532
-4.5175257	attended	-0.09634532
-4.5175257	specialists	-0.09634532
-4.5175257	prohibitions	-0.09634532
-4.5175257	valid	-0.09634532
-3.7570748	81	-0.32746106
-4.5175257	82	-0.09634532
-4.5175257	prevented	-0.09634532
-4.5175257	coherent	-0.09634532
-4.5175257	preliminary	-0.09634532
-4.19003	court	-0.09634535
-4.5175257	feasibility	-0.09634532
-4.5175257	1762	-0.09634532
-4.5175257	voices	-0.09634532
-4.5175257	published	-0.09634532
-4.5175257	facilitate	-0.09634532
-4.5175257	frequent	-0.09634532
-4.5175257	consequence	-0.09634532
-4.5175257	continental	-0.09634532
-4.5175257	tradition	-0.09634532
-4.5175257	anti-competitive	-0.09634532
-4.5175257	depends	-0.09634532
-4.5175257	clauses	-0.09634532
-4.5175257	intends	-0.09634532
-4.5175257	resolve	-0.09634532
-4.5175257	repealed	-0.09634532
-4.5175257	frankly	-0.09634532
-4.5175257	satisfactory	-0.09634532
-4.5175257	functions	-0.09634532
-4.5175257	satisfied	-0.09634532
-4.19003	acted	-0.09634532
-4.5175257	modification	-0.09634532
-4.5175257	paradox	-0.09634532
-4.5175257	unfair	-0.09634532
-4.5175257	functioning	-0.09634532
-4.5175257	moved	-0.09634532
-4.5175257	backwards	-0.09634532
-4.5175257	compared	-0.09634532
-4.5175257	dissected	-0.09634532
-4.5175257	dense	-0.09634532
-4.5175257	concise	-0.09634532
-4.5175257	basque	-0.09634532
-4.5175257	margin	-0.09634532
-4.5175257	virtue	-0.09634532
-4.5175257	missing	-0.09634532
-4.5175257	lay	-0.09634532
-4.5175257	investors	-0.09634532
-4.5175257	stress	-0.09634532
-4.5175257	age	-0.09634532
-4.19003	safeguarding	-0.09634532
-4.5175257	noticed	-0.09634532
-4.5175257	respected	-0.09634532
-4.5175257	safeguard	-0.09634532
-4.5175257	emphasise	-0.09634532
-4.5175257	conservatives	-0.09634532
-4.5175257	core	-0.09634532
-4.5175257	across	-0.09634532
-4.5175257	follows	-0.09634532
-4.5175257	machinery	-0.09634532
-4.5175257	truth	-0.09634532
-4.5175257	acutely	-0.09634532
-4.5175257	determination	-0.09634532
-4.19003	described	-0.09634532
-4.5175257	daily	-0.09634532
-4.5175257	deeper	-0.09634532
-4.5175257	rhetoric	-0.09634532
-4.5175257	obstacles	-0.09634532
-4.5175257	block	-0.09634532
-4.5175257	man	-0.09634532
-4.5175257	cartels	-0.09634532
-4.5175257	everybody	-0.09634532
-4.5175257	rigorous	-0.09634532
-4.5175257	illustrated	-0.09634532
-4.19003	renationalisation	-0.09634532
-4.5175257	exists	-0.09634532
-4.5175257	worried	-0.09634532
-4.5175257	proves	-0.09634532
-4.5175257	britain	-0.09634532
-4.5175257	dispute	-0.09634532
-4.5175257	unless	-0.09634532
-4.5175257	anybody	-0.09634532
-4.5175257	thinks	-0.09634532
-4.5175257	nationalistic	-0.09634532
-4.5175257	factortame	-0.09634532
-4.5175257	defendant	-0.09634532
-4.5175257	judicially	-0.09634532
-4.5175257	speed	-0.09634532
-4.5175257	thyssen	-0.09634532
-4.5175257	lawyer	-0.09634532
-4.5175257	minister	-0.09634532
-4.5175257	histories	-0.09634532
-4.5175257	implications	-0.09634532
-4.5175257	cost-benefit	-0.09634532
-4.5175257	sort	-0.09634532
-4.5175257	told	-0.09634532
-4.5175257	wasted	-0.09634532
-4.5175257	independent	-0.09634532
-4.5175257	integration	-0.09634532
-4.5175257	began	-0.09634532
-4.5175257	justification	-0.09634532
-4.5175257	proud	-0.09634532
-4.5175257	vigilant	-0.09634532
-4.5175257	nation-states	-0.09634532
-4.5175257	limits	-0.09634532
-4.5175257	writer	-0.09634532
-4.5175257	vivienne	-0.09634532
-4.5175257	forestier	-0.09634532
-4.5175257	reign	-0.09634532
-4.5175257	terror	-0.09634532
-4.5175257	surrendering	-0.09634532
-4.5175257	overdue	-0.09634532
-4.5175257	underline	-0.09634532
-4.5175257	dialogue	-0.09634532
-4.5175257	non-governmental	-0.09634532
-4.5175257	associations	-0.09634532
-4.5175257	organise	-0.09634532
-4.5175257	tasks	-0.09634532
-4.5175257	serve	-0.09634532
-4.5175257	offsetting	-0.09634532
-4.5175257	furthering	-0.09634532
-4.5175257	represents	-0.09634532
-4.5175257	affords	-0.09634532
-4.5175257	shadow	-0.09634532
-4.5175257	discipline	-0.09634532
-4.5175257	deterrent	-0.09634532
-4.5175257	overwork	-0.09634532
-4.5175257	debatable	-0.09634532
-4.5175257	amending	-0.09634532

\2-grams:
-0.99874777	session </s>	0
-0.02253681	. </s>	0
-2.0434675	union </s>	0
-0.58128	-rrb- </s>	0
-2.3583007	policy </s>	0
-1.5350193	agenda </s>	0
-0.024728745	? </s>	0
-1.2339419	: </s>	0
-1.9292667	; </s>	0
-0.6994734	! </s>	0
-1.5904204	sitting </s>	0
-1.7936599	goods </s>	0
-1.4689165	road </s>	0
-0.99874777	p.m. </s>	0
-1.2971749	coordination </s>	0
-3.6886435	<s> resumption	-0.054025657
-2.2002704	<s> of	-0.054025657
-0.6490916	resumption of	-0.054025657
-0.90357214	session of	-0.054025657
-1.7172233	, of	-0.34533527
-1.712443	and of	-0.054025657
-1.2035314	wish of	-0.054025657
-1.6126217	you of	-0.1495928
-1.9243155	that of	-0.054025657
-1.4358342	period of	-0.054025657
-1.5526903	people of	-0.054025657
-0.15517393	number of	-0.07153032
-1.2805551	countries of	-0.054025657
-0.6490916	series of	-0.054025657
-1.1242356	disasters of	-0.054025657
-1.5163126	were of	-0.054025657
-1.2325354	subject of	-0.2783885
-1.0376238	course of	-0.12365841
-1.3234133	few of	-0.054025657
-1.2234752	part-session of	-0.054025657
-1.0541894	members of	-0.1495928
-0.6490916	behalf of	-0.25930655
-0.91259146	all of	-0.19920726
-0.9233727	those of	-0.1495928
-1.1855581	-rrb- of	-0.2066281
-1.3594663	president of	-0.2066281
-1.2375541	point of	-0.1715165
-1.0376238	order of	-0.33270425
-1.5828514	be of	-0.054025657
-0.5377866	aware of	-0.054025657
-1.5863743	been of	-0.054025657
-0.85773003	one of	-0.57941854
-1.2035314	initiative of	-0.054025657
-0.5377866	type of	-0.054025657
-1.5563064	about of	-0.054025657
-1.1242356	rule of	-0.054025657
-1.344116	question of	-0.054025657
-1.499264	proposal of	-0.054025657
-0.74114746	form of	-0.054025657
-1.1433586	reduction of	-0.054025657
-0.8578085	principle of	-0.25114918
-1.8026145	is of	-0.054025657
-1.4568754	policy of	-0.054025657
-0.6490916	objection of	-0.054025657
-1.2325354	kind of	-0.054025657
-1.6752012	not of	-0.054025657
-1.6133156	time of	-0.054025657
-1.1242356	start of	-0.2066281
-1.0376238	presentation of	-0.054025657
-1.3367695	request of	-0.054025657
-1.3716934	member of	-0.1495928
-1.1111591	many of	-0.2066281
-1.4106189	attention of	-0.054025657
-1.0999478	case of	-0.054025657
-1.1859285	interest of	-0.054025657
-1.3783658	us of	-0.054025657
-1.5895305	are of	-0.054025657
-1.3737396	right of	-0.054025657
-1.0191143	because of	-0.054025657
-1.0376238	facts of	-0.054025657
-1.4123462	first of	-0.45764297
-1.616334	but of	-0.054025657
-0.9814532	two of	-0.1495928
-1.3505497	place of	-0.054025657
-1.5270675	therefore of	-0.054025657
-1.4421337	matter of	-0.1495928
-1.1242356	meeting of	-0.054025657
-0.6502311	light of	-0.19920726
-1.6310002	safety of	-0.054025657
-0.5811592	quality of	-0.054025657
-1.503189	committee of	-0.054025657
-1.1242356	either of	-0.054025657
-1.0719806	areas of	-0.054025657
-1.588617	also of	-0.054025657
-0.6490916	college of	-0.054025657
-1.4240584	regulations of	-0.054025657
-1.5744927	vote of	-0.054025657
-0.90357214	opinions of	-0.054025657
-0.90357214	vice-president of	-0.054025657
-1.1859285	intervention of	-0.054025657
-1.3234133	decision of	-0.054025657
-1.4339234	situation of	-0.054025657
-0.80236316	majority of	-0.054025657
-0.6490916	irresponsible of	-0.054025657
-1.5436587	states of	-0.054025657
-0.5377866	risk of	-0.054025657
-0.6490916	expense of	-0.054025657
-1.28437	item of	-0.054025657
-0.6490916	verification of	-0.054025657
-0.6490916	version of	-0.054025657
